/*
 * Copyright (c) 2019, Alliance for Open Media. All rights reserved
 *
 * This source code is subject to the terms of the BSD 2 Clause License and
 * the Alliance for Open Media Patent License 1.0. If the BSD 2 Clause License
 * was not distributed with this source code in the LICENSE file, you can
 * obtain it at www.aomedia.org/license/software. If the Alliance for Open
 * Media Patent License 1.0 was not distributed with this source code in the
 * PATENTS file, you can obtain it at www.aomedia.org/license/patent.
 */

#ifndef AV1_MODELS_INTRA_FRAME_MODEL_QP32_H_
#define AV1_MODELS_INTRA_FRAME_MODEL_QP32_H_

#include "av1/common/cnn.h"

static float model_32_weight_0[] = {
  0.034046f,  -0.009272f, -0.059293f, -0.107442f, -0.076525f, -0.024532f,
  -0.106444f, 0.083182f,  0.028286f,  -0.104358f, -0.070866f, 0.115905f,
  0.004099f,  0.071680f,  -0.098014f, -0.017860f, -0.036742f, -0.060995f,
  0.052690f,  -0.003087f, -0.055850f, -0.028364f, 0.024037f,  -0.007953f,
  0.094517f,  -0.042905f, 0.057329f,  -0.119784f, 0.056099f,  0.011176f,
  0.052924f,  -0.117666f, 0.016272f,  0.094641f,  0.093073f,  0.078801f,
  0.033468f,  -0.137563f, 0.019381f,  0.025159f,  0.110084f,  -0.094240f,
  -0.089522f, -0.017477f, -0.029210f, 0.134493f,  0.039742f,  -0.012481f,
  0.105370f,  -0.031518f, -0.107799f, 0.085715f,  -0.011243f, 0.087836f,
  -0.048649f, -0.030401f, 0.112819f,  0.125076f,  0.014523f,  -0.007088f,
  0.035537f,  0.078724f,  0.074778f,  -0.121708f, 0.005768f,  -0.116603f,
  0.049225f,  -0.069616f, -0.041977f, -0.095056f, 0.065672f,  0.112356f,
  -0.010151f, -0.027733f, -0.071265f, 0.103909f,  -0.073768f, 0.074881f,
  0.072878f,  -0.130806f, -0.063093f, -0.007375f, -0.046401f, 0.067946f,
  0.055144f,  -0.037789f, 0.125874f,  0.010006f,  -0.056099f, 0.013572f,
  0.130975f,  0.097404f,  -0.086774f, 0.012680f,  0.024795f,  0.018321f,
  0.001385f,  0.099646f,  0.116501f,  0.029777f,  -0.093618f, 0.087754f,
  -0.042923f, 0.117184f,  0.009001f,  0.074070f,  0.101257f,  0.052306f,
  -0.053806f, 0.075697f,  -0.042229f, 0.093914f,  -0.042214f, -0.062516f,
  0.102431f,  -0.116709f, 0.049825f,  0.066831f,  -0.025477f, 0.069482f,
  -0.080411f, -0.112553f, -0.095591f, -0.115619f, -0.114231f, 0.048098f,
  -0.048699f, 0.015226f,  0.025547f,  -0.100667f, -0.153885f, -0.057264f,
  -0.035848f, 0.072307f,  -0.065263f, -0.039966f, 0.083149f,  -0.130271f,
  -0.112458f, -0.080102f, 0.021031f,  -0.132448f, 0.011873f,  0.146808f,
  0.120403f,  0.028592f,  -0.056562f, -0.110719f, 0.135297f,  -0.107234f,
  -0.092521f, 0.080113f,  -0.000303f, 0.030266f,  0.021517f,  0.158204f,
  0.045608f,  -0.055043f, -0.067908f, 0.074171f,  0.056056f,  -0.029686f,
  -0.133576f, 0.080046f,  0.040322f,  0.101538f,  -0.122526f, -0.143204f,
  0.048505f,  -0.006072f, -0.097158f, -0.121893f, 0.032625f,  0.055131f,
  -0.067839f, -0.069197f, -0.108744f, -0.019857f, 0.119419f,  -0.126332f,
  -0.090481f, 0.030081f,  0.037342f,  -0.010865f, 0.009562f,  -0.026411f,
  0.095319f,  -0.041215f, 0.031676f,  0.010972f,  0.016641f,  -0.009016f,
  0.003988f,  0.054654f,  0.085628f,  -0.076748f, 0.159004f,  0.037486f,
  0.014414f,  -0.136606f, 0.054755f,  0.096343f,  0.128016f,  0.089038f,
  0.054728f,  0.039932f,  0.065706f,  -0.139042f, 0.022442f,  -0.007622f,
  -0.139012f, -0.028580f, 0.010694f,  -0.025587f, 0.046241f,  -0.044978f,
  -0.126021f, -0.077101f, -0.031327f, 0.024308f,  0.077629f,  -0.090322f,
  -0.084614f, 0.100220f,  0.024006f,  0.074601f,  0.119561f,  -0.015298f,
  -0.116009f, 0.089198f,  0.024394f,  -0.121165f, -0.105644f, 0.145516f,
  -0.066094f, 0.029640f,  0.133772f,  -0.108127f, 0.113925f,  0.069361f,
  0.067015f,  0.004832f,  -0.000919f, 0.139775f,  -0.084289f, -0.056928f,
  0.042986f,  -0.111391f, 0.029870f,  0.091077f,  -0.106216f, 0.055501f,
  0.044325f,  -0.039255f, 0.039288f,  0.030537f,  -0.117040f, -0.048142f,
  0.046789f,  0.079257f,  -0.041455f, 0.072621f,  0.104407f,  0.138489f,
  -0.097543f, 0.049828f,  0.029725f,  -0.100121f, -0.057289f, -0.134200f,
  -0.040865f, 0.109075f,  0.001882f,  -0.098607f, 0.102470f,  0.037124f,
  0.021765f,  -0.012266f, -0.109638f, -0.052491f, 0.125422f,  -0.098782f,
  -0.097508f, -0.018258f, -0.118538f, 0.053594f,  0.104630f,  0.023845f,
};

static float model_32_bias_0[] = {
  -0.004014f, -0.001583f, -0.008522f, 0.003415f,  0.008738f,  -0.006911f,
  0.008973f,  -0.000895f, -0.009954f, -0.002365f, 0.011941f,  -0.008912f,
  -0.001405f, -0.002037f, -0.003366f, -0.004159f, -0.008332f, 0.011906f,
  -0.001549f, 0.004653f,  -0.004830f, 0.005837f,  -0.000906f, 0.009504f,
  -0.006163f, 0.004632f,  -0.000496f, -0.000470f, 0.005793f,  -0.004260f,
  -0.007270f, -0.001511f,
};

static float model_32_weight_1[] = {
  0.071339f,  0.108157f,  -0.121047f, 0.021374f,  -0.132950f, -0.085509f,
  0.075793f,  -0.051513f, -0.106826f, 0.038763f,  0.141388f,  0.073070f,
  0.189747f,  0.078908f,  -0.094617f, 0.117112f,  0.056206f,  0.100799f,
  -0.114557f, -0.076311f, -0.078414f, -0.085997f, 0.091077f,  -0.158601f,
  -0.096460f, 0.010204f,  0.042769f,  0.007345f,  0.028073f,  -0.149625f,
  -0.151529f, -0.011532f, -0.088668f, -0.126343f, 0.008341f,  0.006379f,
  -0.101605f, 0.079467f,  -0.105384f, 0.159281f,  -0.087096f, 0.122426f,
  0.075296f,  0.028511f,  0.061053f,  0.099062f,  -0.051457f, -0.074737f,
  -0.052738f, -0.101946f, 0.000000f,  -0.007734f, 0.133215f,  0.012449f,
  -0.030910f, 0.012526f,  0.094034f,  0.092307f,  0.176880f,  0.130979f,
  0.113259f,  0.154744f,  -0.083880f, -0.166555f, 0.052676f,  -0.142609f,
  -0.108776f, -0.021280f, 0.042429f,  -0.126388f, 0.062068f,  -0.064694f,
  -0.005747f, 0.097254f,  0.160292f,  0.070382f,  0.042051f,  0.047766f,
  0.033162f,  0.059261f,  0.146046f,  0.042829f,  -0.166144f, -0.043986f,
  0.167194f,  0.133434f,  0.100993f,  0.072137f,  0.104405f,  0.003028f,
  -0.185915f, 0.140331f,  -0.133808f, 0.106884f,  -0.044543f, -0.052263f,
  0.088823f,  -0.096553f, 0.100939f,  0.061628f,  0.023784f,  -0.146503f,
  0.133318f,  0.077551f,  -0.074161f, 0.064034f,  0.076344f,  0.035271f,
  0.119881f,  0.088331f,  0.133160f,  0.109626f,  -0.100748f, -0.104882f,
  -0.000502f, -0.146558f, 0.047933f,  0.037861f,  0.051774f,  0.075800f,
  -0.081470f, 0.132127f,  0.144477f,  -0.069604f, -0.041450f, 0.089622f,
  0.092587f,  -0.060518f, 0.033084f,  -0.186997f, -0.075457f, -0.060792f,
  -0.042677f, 0.126284f,  -0.060770f, -0.012039f, 0.009089f,  -0.126053f,
  0.020572f,  -0.109154f, -0.016321f, 0.080103f,  -0.027007f, -0.134108f,
  -0.150159f, -0.117859f, 0.016906f,  -0.101080f, 0.111687f,  0.090157f,
  -0.124784f, 0.072179f,  -0.107771f, 0.077241f,  0.021656f,  -0.100035f,
  0.113134f,  0.072196f,  0.117852f,  0.042937f,  0.025290f,  0.041266f,
  -0.067711f, -0.178287f, 0.092631f,  -0.047631f, -0.017142f, -0.134000f,
  -0.078890f, 0.115802f,  -0.197239f, -0.113846f, -0.013816f, 0.101539f,
  0.099733f,  -0.094526f, 0.138407f,  -0.135507f, -0.168959f, 0.101009f,
  0.031016f,  0.158129f,  -0.082894f, 0.042983f,  0.029767f,  0.119853f,
  -0.069780f, 0.107721f,  0.058438f,  0.027407f,  -0.036446f, 0.089374f,
  -0.002217f, -0.110050f, 0.007076f,  -0.106517f, -0.117068f, 0.064026f,
  0.050994f,  -0.128346f, 0.121057f,  -0.060019f, 0.064543f,  0.005680f,
  -0.093621f, 0.054787f,  0.051269f,  0.001155f,  -0.093521f, -0.119801f,
  0.115604f,  -0.056193f, 0.154475f,  -0.006339f, -0.100928f, 0.037529f,
  0.052955f,  -0.111105f, -0.097765f, 0.013836f,  0.109734f,  -0.035972f,
  0.022373f,  -0.180786f, -0.047095f, -0.130133f, 0.035872f,  0.046146f,
  0.129782f,  -0.120420f, -0.120647f, -0.030878f, -0.121603f, -0.081130f,
  0.052416f,  0.089478f,  0.148542f,  -0.003021f, 0.018207f,  0.093315f,
  -0.113223f, -0.017532f, 0.000000f,  -0.213375f, 0.110891f,  -0.072265f,
  0.110991f,  -0.094673f, -0.142771f, -0.017826f, -0.086697f, -0.083105f,
  -0.034687f, 0.066602f,  -0.095947f, -0.045471f, 0.055571f,  0.051018f,
  -0.062725f, -0.122152f, -0.152985f, 0.184289f,  -0.122540f, -0.106102f,
  0.005134f,  -0.028075f, 0.161855f,  -0.053119f, -0.151558f, -0.098332f,
  -0.033849f, 0.014565f,  -0.008366f, -0.021589f, 0.030463f,  -0.039911f,
  -0.109520f, -0.201966f, -0.065026f, -0.058608f, 0.021208f,  -0.157144f,
  -0.089342f, 0.194458f,  -0.036240f, -0.186191f, 0.187115f,  0.141745f,
  0.095746f,  0.116014f,  -0.097202f, -0.100536f, -0.024732f, 0.087840f,
  -0.089710f, -0.065546f, -0.054293f, 0.007049f,  -0.049215f, -0.148778f,
  -0.054510f, 0.000777f,  0.015499f,  -0.129566f, -0.190594f, -0.202575f,
  -0.065613f, 0.062686f,  -0.128318f, -0.210512f, 0.066729f,  0.080739f,
  -0.040399f, 0.054339f,  -0.061682f, -0.057872f, 0.029914f,  0.019604f,
  -0.086391f, -0.114189f, 0.078188f,  -0.018198f, -0.054533f, -0.008607f,
  -0.037966f, 0.132128f,  0.071540f,  -0.084420f, -0.082821f, 0.019691f,
  -0.013391f, 0.205967f,  0.140563f,  -0.044209f, 0.051909f,  -0.036690f,
  0.063138f,  0.073811f,  0.023518f,  -0.109311f, -0.055879f, -0.115062f,
  -0.060307f, 0.010673f,  0.078333f,  0.051339f,  -0.009727f, 0.166734f,
  -0.105397f, -0.040042f, 0.066670f,  0.069748f,  0.050732f,  -0.123443f,
  0.060900f,  -0.138849f, 0.030923f,  -0.057589f, 0.102806f,  0.097911f,
  -0.010772f, 0.014983f,  -0.091303f, 0.099868f,  -0.069844f, -0.130780f,
  0.108468f,  0.183477f,  0.127755f,  0.044587f,  -0.089083f, 0.060179f,
  0.153269f,  0.168342f,  -0.131989f, 0.002187f,  0.009009f,  -0.039978f,
  -0.091925f, 0.118860f,  -0.133850f, -0.105629f, 0.148599f,  -0.037593f,
  -0.023532f, 0.131496f,  0.052240f,  -0.077627f, -0.084217f, -0.133744f,
  -0.082394f, 0.051299f,  -0.131121f, -0.011689f, -0.017018f, -0.005360f,
  0.142616f,  -0.045010f, 0.095752f,  -0.003761f, -0.100303f, -0.003981f,
  -0.141902f, -0.104578f, 0.180675f,  0.117366f,  -0.124846f, -0.026994f,
  0.107132f,  -0.045759f, 0.009177f,  -0.012699f, -0.049399f, -0.096015f,
  -0.045777f, -0.043243f, -0.087394f, -0.029050f, -0.146461f, 0.062275f,
  -0.079081f, -0.106732f, 0.015822f,  -0.111898f, 0.141437f,  -0.036422f,
  0.012512f,  -0.097317f, 0.087614f,  -0.054336f, 0.054655f,  -0.103099f,
  -0.101705f, -0.064745f, 0.000000f,  0.089104f,  -0.073382f, 0.096115f,
  -0.076442f, 0.011892f,  -0.100614f, 0.100221f,  -0.009643f, -0.074626f,
  -0.043487f, -0.067330f, -0.037386f, 0.012897f,  0.095827f,  0.043135f,
  0.153861f,  -0.118792f, 0.059737f,  0.134128f,  -0.070976f, 0.003608f,
  -0.057678f, 0.115440f,  0.051826f,  -0.157516f, 0.033221f,  0.017430f,
  0.059878f,  -0.160623f, -0.097083f, -0.135706f, 0.083188f,  -0.106463f,
  -0.149584f, 0.122587f,  -0.038775f, 0.131089f,  0.147234f,  0.077934f,
  0.065054f,  0.153436f,  0.157271f,  -0.144160f, 0.112726f,  0.101307f,
  -0.042303f, 0.093990f,  0.085507f,  0.150018f,  -0.091257f, 0.096675f,
  -0.063807f, -0.149837f, 0.117190f,  -0.096822f, 0.142164f,  -0.173817f,
  0.155459f,  -0.132108f, 0.010832f,  0.004888f,  0.100862f,  -0.105128f,
  -0.101998f, -0.002433f, 0.010350f,  0.096764f,  -0.027030f, 0.115308f,
  -0.069865f, 0.046086f,  0.052374f,  0.094552f,  0.034678f,  -0.065815f,
  0.073065f,  0.010576f,  -0.220466f, -0.152035f, -0.086827f, -0.121043f,
  -0.099866f, -0.033054f, 0.094521f,  -0.060619f, -0.249583f, 0.119365f,
  -0.061891f, -0.002662f, 0.054830f,  0.035362f,  0.129120f,  0.107585f,
  0.114429f,  0.005314f,  -0.083004f, -0.064750f, -0.042829f, 0.165822f,
  -0.017015f, 0.114864f,  0.146214f,  -0.092449f, 0.127640f,  -0.018479f,
  -0.108228f, -0.131151f, 0.093817f,  0.112558f,  -0.144941f, -0.084876f,
  -0.203968f, -0.050719f, 0.005976f,  -0.091389f, 0.083354f,  -0.132986f,
  0.096786f,  0.024145f,  0.093720f,  0.021380f,  -0.162054f, 0.040439f,
  -0.107723f, 0.132475f,  0.061503f,  -0.124419f, 0.007523f,  -0.001727f,
  -0.070135f, -0.147739f, 0.007349f,  0.102916f,  0.095521f,  -0.133410f,
  -0.085969f, 0.025234f,  -0.093141f, -0.062454f, 0.080169f,  0.152038f,
  0.039032f,  -0.036992f, 0.114097f,  0.075549f,  0.042551f,  0.084560f,
  0.081894f,  0.062792f,  -0.158719f, 0.076799f,  -0.087158f, -0.091261f,
  -0.030402f, 0.025123f,  -0.073817f, -0.084662f, -0.000137f, 0.037198f,
  0.010706f,  -0.011756f, 0.001361f,  0.035972f,  0.203838f,  0.146110f,
  0.000695f,  -0.011766f, 0.017250f,  -0.040111f, -0.122175f, -0.095452f,
  0.169636f,  0.062751f,  -0.045230f, 0.065447f,  -0.065391f, -0.093904f,
  -0.136265f, -0.095134f, 0.021489f,  -0.033641f, 0.171650f,  0.092237f,
  0.166053f,  -0.126690f, -0.153945f, 0.095151f,  -0.036102f, -0.064518f,
  0.051995f,  -0.108024f, 0.000000f,  0.025514f,  -0.094060f, 0.076213f,
  -0.059133f, -0.024091f, -0.015134f, -0.108476f, -0.087645f, 0.066988f,
  0.138325f,  -0.121191f, -0.164132f, 0.118145f,  0.124889f,  -0.053279f,
  0.074008f,  0.136151f,  0.089892f,  -0.134123f, -0.139093f, 0.032665f,
  0.052618f,  0.116139f,  -0.166800f, -0.146165f, -0.110764f, -0.135407f,
  -0.099395f, 0.013579f,  0.089877f,  -0.049649f, -0.043935f, 0.024627f,
  -0.115083f, -0.078244f, -0.088572f, 0.090619f,  0.109960f,  0.100648f,
  0.110628f,  -0.069978f, 0.001929f,  0.052839f,  0.046283f,  0.093815f,
  -0.134694f, 0.069641f,  -0.070009f, 0.096954f,  0.005887f,  -0.096829f,
  -0.092877f, -0.074538f, -0.155057f, -0.064980f, -0.091189f, 0.148595f,
  -0.078315f, -0.109707f, 0.158069f,  -0.138870f, -0.081829f, 0.110939f,
  0.055934f,  -0.045761f, 0.160062f,  0.040487f,  0.109601f,  -0.072799f,
  0.095534f,  -0.166721f, 0.102994f,  -0.120804f, -0.098190f, 0.138527f,
  -0.067446f, 0.038103f,  0.034835f,  0.164957f,  0.135458f,  -0.057496f,
  -0.053096f, -0.095940f, 0.046760f,  0.028215f,  0.003266f,  -0.136352f,
  0.011619f,  -0.109590f, -0.087965f, -0.129807f, -0.162147f, -0.045362f,
  -0.059825f, -0.013965f, 0.087481f,  0.021010f,  -0.042366f, -0.012379f,
  0.095942f,  0.085730f,  0.097851f,  -0.126869f, 0.072838f,  0.112849f,
  -0.066667f, -0.131481f, 0.032335f,  0.109790f,  -0.014188f, 0.180283f,
  0.139193f,  -0.075472f, -0.090835f, 0.163759f,  0.009575f,  0.060641f,
  0.220794f,  -0.138857f, -0.086159f, 0.107858f,  -0.080473f, -0.160518f,
  0.027478f,  0.027789f,  -0.108413f, 0.061255f,  0.139879f,  -0.039048f,
  -0.109065f, -0.127146f, -0.057954f, 0.063515f,  -0.061196f, 0.080332f,
  -0.116879f, 0.002234f,  -0.071875f, -0.050130f, -0.022733f, -0.080981f,
  0.098827f,  -0.134865f, -0.015557f, 0.146387f,  0.100504f,  -0.130517f,
  -0.100078f, -0.140220f, 0.041880f,  -0.130232f, -0.115059f, -0.119479f,
  0.031312f,  -0.154348f, 0.041977f,  0.006064f,  0.130112f,  0.128871f,
  0.115039f,  -0.078408f, 0.001306f,  -0.125452f, -0.073923f, 0.116085f,
  -0.070348f, -0.069942f, -0.118550f, -0.066307f, 0.154957f,  -0.110351f,
  0.173899f,  0.062405f,  -0.127852f, -0.117341f, 0.034453f,  -0.122850f,
  -0.081271f, -0.100272f, -0.165307f, 0.091172f,  -0.089380f, -0.096879f,
  -0.035291f, -0.030690f, 0.126903f,  0.127088f,  -0.049189f, 0.067924f,
  0.205983f,  0.118379f,  0.000000f,  -0.031057f, 0.059776f,  0.121527f,
  0.141968f,  0.085064f,  -0.129991f, -0.016727f, -0.021081f, -0.104942f,
  0.075868f,  0.015011f,  0.077798f,  0.095638f,  0.078210f,  0.112470f,
  0.132112f,  -0.055719f, 0.038415f,  -0.097648f, 0.041777f,  0.098925f,
  -0.155204f, -0.058015f, 0.159703f,  -0.074449f, -0.143778f, -0.032545f,
  0.109441f,  0.136060f,  -0.140045f, 0.179406f,  0.121823f,  -0.066448f,
  0.069105f,  0.096638f,  -0.217156f, -0.117746f, 0.025946f,  0.106262f,
  0.038393f,  0.124061f,  -0.068081f, -0.079105f, 0.128443f,  0.022694f,
  -0.025140f, 0.002270f,  0.050980f,  0.082284f,  0.112732f,  -0.039281f,
  0.074278f,  -0.037445f, 0.026527f,  0.129449f,  -0.039116f, 0.018973f,
  -0.035421f, -0.004121f, 0.159100f,  -0.025938f, -0.157365f, -0.021615f,
  -0.161978f, 0.120740f,  -0.069447f, 0.061058f,  -0.012971f, -0.015882f,
  0.041695f,  -0.039220f, -0.035998f, -0.056901f, -0.109493f, 0.052818f,
  -0.127745f, -0.098111f, 0.033493f,  -0.041326f, 0.112379f,  -0.102493f,
  -0.152097f, 0.141238f,  0.110705f,  -0.079622f, 0.129150f,  0.092781f,
  0.130423f,  -0.125767f, 0.053711f,  0.073667f,  0.032913f,  -0.149116f,
  -0.028915f, -0.054709f, -0.050296f, -0.029056f, 0.042944f,  0.005983f,
  0.031595f,  0.028859f,  -0.021692f, -0.085025f, 0.070185f,  0.116864f,
  -0.134750f, -0.125754f, -0.127241f, 0.066231f,  -0.138613f, -0.049186f,
  0.144763f,  -0.057157f, -0.105161f, 0.093874f,  -0.045244f, -0.053730f,
  0.054951f,  0.003172f,  0.025983f,  0.135992f,  -0.111940f, -0.080189f,
  -0.105381f, -0.028906f, 0.060841f,  0.125753f,  0.035390f,  0.082498f,
  0.017015f,  -0.044686f, -0.130943f, 0.011823f,  -0.129536f, 0.007072f,
  0.022773f,  0.137111f,  0.112146f,  -0.006097f, 0.096604f,  -0.041603f,
  -0.056706f, 0.090189f,  0.094354f,  -0.197598f, 0.153773f,  0.066862f,
  0.082536f,  -0.063251f, -0.162205f, 0.124392f,  -0.165098f, -0.049299f,
  0.026421f,  -0.055063f, -0.154417f, 0.119964f,  0.140643f,  0.019508f,
  0.106655f,  -0.055373f, 0.119643f,  0.092767f,  -0.109972f, 0.026137f,
  -0.094018f, 0.139466f,  0.012292f,  0.144781f,  -0.067462f, 0.057522f,
  -0.230698f, 0.008575f,  0.125157f,  -0.118948f, -0.033115f, -0.009516f,
  0.048960f,  -0.054501f, 0.113334f,  -0.100296f, -0.127149f, -0.028765f,
  -0.046205f, 0.125352f,  -0.076083f, 0.061131f,  -0.091752f, 0.042554f,
  -0.099489f, -0.107282f, -0.000000f, -0.005052f, 0.117922f,  0.156710f,
  0.023016f,  0.065388f,  -0.002032f, -0.162946f, 0.065218f,  -0.064543f,
  0.112480f,  0.144057f,  0.110450f,  0.019657f,  0.140817f,  -0.009193f,
  0.056818f,  0.135386f,  -0.051045f, -0.032335f, -0.051028f, 0.093487f,
  -0.114106f, 0.035628f,  0.146917f,  -0.050787f, -0.070185f, 0.046855f,
  -0.087350f, -0.157121f, -0.002680f, -0.130769f, 0.075345f,  0.014059f,
  0.156678f,  -0.072842f, 0.073193f,  0.069983f,  0.026978f,  -0.006463f,
  0.105454f,  0.091729f,  0.095528f,  -0.086121f, 0.162033f,  -0.123812f,
  0.022165f,  0.017394f,  0.015403f,  0.155397f,  0.148063f,  -0.084603f,
  0.130476f,  0.054022f,  -0.136962f, 0.106726f,  0.140286f,  -0.053965f,
  -0.012141f, 0.067947f,  0.028754f,  0.108645f,  -0.004947f, 0.090173f,
  -0.025967f, -0.067819f, 0.019374f,  0.006288f,  -0.057506f, 0.147412f,
  0.012346f,  -0.083424f, -0.015967f, 0.010009f,  0.112573f,  -0.037261f,
  -0.019927f, -0.002055f, -0.071156f, 0.019045f,  0.017539f,  -0.073216f,
  -0.072443f, -0.088924f, 0.063680f,  0.085639f,  0.120738f,  0.096790f,
  -0.079880f, 0.071315f,  -0.005076f, 0.009957f,  0.030175f,  -0.112677f,
  -0.116038f, -0.022087f, -0.098048f, 0.118563f,  -0.104177f, 0.120659f,
  -0.029977f, 0.071847f,  -0.118970f, -0.156605f, 0.050665f,  -0.044658f,
  0.019012f,  0.108272f,  0.032977f,  -0.132434f, 0.032132f,  -0.180947f,
  -0.014082f, -0.016627f, -0.091925f, -0.021938f, 0.100194f,  -0.036791f,
  -0.199967f, 0.081737f,  -0.027783f, -0.135133f, 0.077126f,  0.107489f,
  -0.045251f, -0.121582f, 0.104193f,  0.123219f,  0.061339f,  0.011821f,
  -0.077197f, -0.117025f, 0.093311f,  -0.081553f, 0.082997f,  -0.092309f,
  -0.000527f, -0.047091f, -0.001548f, 0.043519f,  0.118082f,  0.131795f,
  -0.133397f, -0.046663f, -0.143670f, -0.069102f, 0.032364f,  0.128480f,
  -0.016768f, -0.112371f, -0.121536f, -0.156837f, 0.110248f,  -0.065362f,
  -0.022037f, -0.040802f, -0.066680f, 0.150881f,  -0.039589f, 0.042343f,
  0.121453f,  0.034553f,  0.123274f,  0.134513f,  0.027322f,  -0.048967f,
  -0.056849f, 0.123343f,  -0.006544f, -0.067661f, -0.159251f, -0.155301f,
  0.157382f,  -0.103099f, -0.100736f, 0.080849f,  0.078694f,  0.012730f,
  -0.119345f, -0.120227f, 0.095143f,  -0.013773f, -0.075844f, -0.156374f,
  0.071328f,  0.072540f,  0.158493f,  0.106189f,  0.033618f,  -0.005663f,
  -0.091134f, 0.156433f,  0.000000f,  0.032437f,  0.087400f,  0.161269f,
  -0.054300f, -0.114151f, -0.069018f, -0.029953f, -0.079122f, 0.032834f,
  -0.066920f, -0.019584f, -0.002097f, 0.124904f,  0.029112f,  -0.024252f,
  -0.100545f, -0.149781f, -0.011624f, -0.144440f, -0.052650f, -0.089679f,
  -0.145615f, -0.141606f, 0.116684f,  -0.008770f, -0.126072f, 0.146438f,
  0.074374f,  0.135534f,  -0.135792f, -0.008320f, 0.152483f,  -0.012500f,
  -0.061410f, 0.091154f,  0.046196f,  -0.087372f, -0.071267f, -0.044554f,
  -0.108385f, -0.149520f, 0.161045f,  -0.114310f, 0.055618f,  0.067069f,
  0.132374f,  0.098102f,  -0.095743f, -0.058771f, -0.000131f, -0.022857f,
  -0.148796f, -0.005707f, 0.166495f,  0.091672f,  0.093760f,  0.006985f,
  0.015713f,  0.137495f,  -0.151947f, 0.011763f,  0.113769f,  -0.016068f,
  0.118117f,  0.103434f,  -0.133540f, 0.109457f,  0.114794f,  -0.119550f,
  0.098952f,  -0.104912f, -0.030205f, 0.058510f,  -0.087254f, -0.142093f,
  -0.158599f, -0.074241f, 0.049834f,  0.064692f,  -0.006177f, -0.154612f,
  -0.039506f, 0.169742f,  0.095394f,  0.036300f,  0.076249f,  0.074535f,
  -0.049769f, -0.055202f, -0.139998f, 0.139344f,  0.046691f,  0.056101f,
  0.125257f,  -0.057895f, -0.017291f, -0.102719f, 0.066362f,  0.056322f,
  -0.149191f, -0.013777f, -0.122899f, -0.078311f, 0.096767f,  -0.138804f,
  -0.147372f, -0.020033f, 0.019180f,  -0.143285f, -0.010735f, -0.042236f,
  -0.124447f, -0.074704f, -0.115182f, -0.116334f, -0.015700f, -0.026515f,
  -0.039463f, -0.150012f, 0.085395f,  0.177187f,  -0.014442f, 0.078888f,
  -0.073743f, -0.136701f, -0.047594f, 0.122062f,  -0.021766f, -0.000755f,
  0.102708f,  0.008197f,  -0.104002f, -0.147081f, -0.062728f, -0.046181f,
  0.000336f,  0.068273f,  -0.148839f, -0.091124f, -0.096060f, 0.178612f,
  -0.019287f, 0.049475f,  -0.134985f, -0.067324f, -0.120907f, -0.044078f,
  0.088776f,  0.104931f,  -0.040011f, -0.098884f, -0.037418f, 0.094630f,
  -0.007480f, 0.022276f,  0.166954f,  -0.069866f, -0.084214f, -0.082703f,
  -0.031582f, -0.069611f, 0.004418f,  0.075761f,  -0.101222f, 0.044474f,
  -0.044296f, 0.009707f,  -0.058251f, 0.107677f,  -0.167864f, -0.030896f,
  0.041832f,  -0.088349f, 0.013698f,  -0.045306f, 0.121788f,  -0.164840f,
  -0.025200f, 0.057372f,  -0.103662f, -0.071042f, -0.030065f, 0.079533f,
  0.031940f,  -0.150816f, 0.011061f,  0.131560f,  0.065435f,  0.077006f,
  -0.141052f, 0.096408f,  -0.000000f, 0.022186f,  -0.128596f, -0.018454f,
  0.018877f,  -0.146427f, 0.086925f,  0.133166f,  0.065299f,  -0.046459f,
  0.035927f,  0.157067f,  -0.057604f, -0.116036f, -0.115515f, -0.057592f,
  -0.160264f, 0.048717f,  0.005360f,  -0.009660f, 0.139204f,  0.007794f,
  0.137873f,  -0.128302f, -0.073424f, -0.060041f, -0.107162f, -0.096072f,
  0.186454f,  0.129173f,  0.077733f,  0.177937f,  -0.182140f, 0.101935f,
  0.009443f,  0.117481f,  0.058508f,  -0.163187f, 0.122479f,  0.010507f,
  0.004830f,  0.195625f,  -0.066138f, -0.033484f, 0.092340f,  0.074836f,
  0.129247f,  0.118693f,  -0.086347f, 0.154515f,  0.091143f,  -0.014295f,
  0.075150f,  0.075939f,  0.121577f,  -0.034301f, 0.122219f,  0.112993f,
  0.122818f,  -0.019686f, -0.034824f, -0.112817f, -0.009734f, -0.028934f,
  -0.124286f, 0.125432f,  0.132849f,  -0.184900f, -0.037677f, 0.098367f,
  0.092191f,  -0.040684f, -0.008593f, -0.055626f, 0.031486f,  0.040357f,
  0.008061f,  -0.115707f, -0.096246f, 0.099614f,  0.011173f,  -0.006642f,
  -0.143720f, 0.176053f,  -0.108023f, -0.053030f, -0.036729f, 0.065645f,
  0.086863f,  0.183453f,  0.015957f,  0.089936f,  0.034864f,  0.152044f,
  0.116544f,  0.038242f,  0.050886f,  0.076473f,  0.030145f,  0.015525f,
  -0.044779f, -0.075601f, -0.002065f, -0.033190f, 0.034847f,  0.014453f,
  -0.013469f, -0.128283f, 0.165753f,  0.143125f,  0.077653f,  -0.160691f,
  -0.013712f, 0.107487f,  -0.080363f, 0.081234f,  -0.131479f, -0.073489f,
  -0.017917f, 0.107338f,  0.046843f,  -0.127046f, -0.017469f, -0.111343f,
  0.110930f,  -0.081297f, 0.032948f,  0.003232f,  -0.138576f, 0.085127f,
  0.016699f,  0.024763f,  0.055657f,  0.128309f,  0.122882f,  -0.103354f,
  0.069189f,  0.055102f,  -0.071128f, -0.099382f, 0.088019f,  -0.130032f,
  -0.021548f, -0.067765f, 0.137964f,  -0.116865f, -0.094606f, -0.035094f,
  -0.085705f, -0.050241f, 0.057462f,  -0.023667f, -0.034726f, 0.132951f,
  -0.058161f, 0.029340f,  -0.092733f, -0.113897f, -0.088851f, 0.031598f,
  0.021297f,  -0.129941f, -0.194167f, -0.179211f, 0.022507f,  0.012454f,
  -0.025186f, 0.033428f,  0.082231f,  0.084816f,  -0.134981f, -0.059110f,
  -0.243255f, 0.039418f,  -0.094143f, -0.164796f, -0.035411f, -0.157177f,
  0.127680f,  -0.013067f, -0.068413f, 0.120294f,  -0.001696f, -0.051598f,
  -0.033701f, -0.053150f, -0.027223f, -0.117644f, 0.130252f,  0.048560f,
  -0.056150f, -0.023430f, -0.000000f, -0.146695f, 0.155658f,  0.010498f,
  0.061835f,  0.004140f,  0.097112f,  0.059544f,  -0.138580f, 0.120967f,
  0.002937f,  -0.091900f, -0.007417f, 0.009387f,  -0.045802f, -0.055415f,
  -0.082164f, -0.121727f, -0.055124f, -0.089995f, 0.083553f,  -0.018983f,
  0.050415f,  0.151503f,  0.098990f,  -0.054617f, 0.153334f,  -0.026199f,
  -0.104646f, 0.125182f,  0.071148f,  0.061314f,  0.109326f,  0.101570f,
  0.127546f,  -0.057462f, -0.066727f, 0.048732f,  0.015140f,  0.043127f,
  0.031023f,  0.113339f,  -0.166318f, 0.039393f,  0.140784f,  0.154479f,
  -0.129214f, 0.160378f,  -0.094836f, -0.149988f, -0.101013f, -0.149543f,
  -0.132303f, -0.045594f, -0.010455f, -0.128355f, -0.088197f, -0.130958f,
  -0.088827f, 0.123714f,  0.098799f,  -0.164999f, 0.117027f,  -0.244024f,
  0.020257f,  0.026482f,  0.075765f,  -0.012992f, 0.113141f,  0.025414f,
  0.047031f,  -0.014901f, 0.056587f,  -0.064075f, 0.038269f,  0.017963f,
  0.058960f,  0.060686f,  -0.098449f, -0.048954f, 0.010909f,  0.143832f,
  0.114581f,  -0.058512f, -0.174828f, 0.088820f,  0.051801f,  0.010334f,
  0.009318f,  0.034733f,  0.119840f,  0.133672f,  -0.156385f, 0.119875f,
  -0.085260f, -0.162821f, -0.179688f, -0.146772f, -0.067385f, 0.074385f,
  0.111145f,  -0.055450f, 0.121840f,  0.036937f,  -0.117490f, 0.035716f,
  -0.069475f, -0.009722f, -0.036152f, 0.080517f,  0.093139f,  0.020415f,
  0.089342f,  -0.099922f, -0.151808f, 0.098844f,  -0.115131f, -0.019068f,
  0.037665f,  0.021645f,  -0.015640f, -0.234911f, -0.037057f, -0.045308f,
  -0.008943f, -0.052307f, 0.069109f,  -0.048558f, 0.025580f,  0.102274f,
  0.088404f,  0.047594f,  0.019588f,  -0.045927f, 0.095071f,  -0.154834f,
  0.109023f,  0.101333f,  0.118262f,  -0.122790f, 0.079737f,  -0.126296f,
  0.048199f,  -0.041284f, 0.011266f,  0.129939f,  -0.081765f, -0.158704f,
  0.119858f,  0.120073f,  -0.067327f, -0.046949f, -0.082042f, 0.029306f,
  0.107857f,  -0.014336f, -0.204812f, -0.094393f, 0.050401f,  -0.047436f,
  0.092434f,  0.101457f,  0.131011f,  -0.065597f, 0.017485f,  0.082928f,
  -0.084346f, -0.054581f, 0.013571f,  0.001155f,  0.106530f,  -0.110475f,
  0.168725f,  -0.075839f, 0.130617f,  0.108740f,  0.087607f,  -0.074919f,
  0.150244f,  -0.130074f, -0.162436f, -0.118391f, 0.125385f,  0.104446f,
  -0.163521f, -0.096904f, 0.190351f,  0.032783f,  -0.102579f, 0.017057f,
  0.063251f,  0.101029f,  -0.000000f, -0.005510f, 0.089714f,  -0.058484f,
  -0.124960f, 0.009912f,  0.016349f,  -0.112284f, -0.054229f, 0.087704f,
  0.018880f,  -0.002064f, 0.075792f,  0.041762f,  0.076331f,  -0.168333f,
  -0.085812f, -0.038724f, 0.008965f,  -0.019851f, 0.151941f,  -0.066041f,
  0.139696f,  -0.137003f, 0.059726f,  0.128303f,  -0.123390f, -0.100080f,
  -0.091128f, 0.122778f,  0.031592f,  0.038428f,  0.040195f,  0.139219f,
  0.116877f,  -0.158006f, 0.108532f,  -0.100923f, -0.095624f, -0.022031f,
  -0.140688f, 0.053961f,  0.024489f,  -0.045800f, 0.112897f,  -0.043381f,
  0.013566f,  -0.009502f, 0.138723f,  -0.111023f, -0.146221f, -0.134052f,
  -0.061082f, 0.082385f,  0.042151f,  0.037186f,  -0.056878f, -0.144229f,
  -0.027527f, -0.071243f, -0.002690f, -0.003666f, -0.102237f, 0.110693f,
  0.012357f,  -0.117293f, -0.018433f, -0.040313f, 0.107051f,  0.053054f,
  -0.249446f, 0.066669f,  0.112020f,  -0.064516f, -0.098500f, 0.116299f,
  -0.044242f, 0.056750f,  -0.071226f, -0.107625f, 0.117226f,  -0.049622f,
  0.073635f,  0.151189f,  -0.022496f, -0.113671f, -0.044161f, 0.118198f,
  0.007278f,  0.001183f,  0.147959f,  -0.117168f, -0.031680f, -0.228754f,
  -0.133181f, 0.211683f,  0.135861f,  -0.094617f, -0.229741f, 0.165049f,
  0.152118f,  0.063689f,  0.029909f,  0.016871f,  -0.063654f, 0.054858f,
  -0.000493f, 0.014234f,  -0.073443f, -0.144813f, -0.019231f, 0.054385f,
  -0.027868f, -0.018102f, 0.126570f,  -0.071122f, -0.163107f, -0.047186f,
  0.081636f,  -0.008216f, 0.101753f,  0.124895f,  -0.149166f, 0.073987f,
  0.143865f,  0.165817f,  0.025498f,  0.005415f,  -0.015437f, -0.000687f,
  0.037272f,  -0.083574f, 0.120693f,  -0.014607f, 0.061975f,  -0.141696f,
  -0.006716f, -0.107415f, 0.062227f,  -0.088186f, -0.014276f, 0.113634f,
  0.151235f,  0.069055f,  0.103949f,  -0.025866f, -0.076205f, -0.069721f,
  0.139872f,  0.128253f,  -0.122293f, -0.033988f, -0.077085f, 0.108540f,
  0.090361f,  -0.106284f, -0.083240f, 0.106384f,  0.094097f,  0.088135f,
  -0.098519f, 0.178569f,  -0.063327f, 0.063645f,  -0.137910f, 0.089599f,
  -0.041439f, -0.118054f, 0.063908f,  0.123403f,  0.016266f,  0.154738f,
  0.209553f,  -0.043478f, 0.110183f,  -0.093293f, -0.103805f, 0.098059f,
  -0.062751f, -0.151698f, 0.071841f,  -0.111340f, -0.102820f, -0.120481f,
  0.027622f,  0.094625f,  -0.040605f, -0.072238f, -0.086917f, 0.110216f,
  0.121810f,  -0.027824f, 0.000000f,  0.028853f,  0.114556f,  0.121482f,
  -0.114802f, -0.137800f, -0.101099f, -0.006612f, 0.062739f,  -0.065747f,
  -0.140989f, 0.155889f,  0.095228f,  -0.090933f, 0.004969f,  -0.008281f,
  0.038334f,  0.040825f,  -0.025437f, 0.113945f,  -0.096810f, 0.027721f,
  0.026559f,  0.005534f,  0.102541f,  -0.077972f, -0.053495f, -0.089451f,
  -0.122735f, -0.034367f, 0.079664f,  0.154266f,  -0.088806f, -0.118767f,
  0.038557f,  0.058571f,  0.111451f,  -0.117447f, -0.042016f, -0.054551f,
  0.069042f,  0.126456f,  0.077906f,  -0.073349f, 0.032937f,  -0.076933f,
  -0.051375f, 0.143152f,  -0.091739f, 0.011953f,  -0.005973f, -0.048777f,
  -0.011748f, 0.095753f,  -0.122144f, 0.030961f,  0.009661f,  0.106366f,
  -0.148240f, -0.122140f, -0.146387f, -0.021731f, -0.115776f, 0.198645f,
  0.020317f,  -0.101929f, -0.067540f, -0.050832f, 0.015395f,  -0.022462f,
  -0.114701f, 0.141634f,  -0.013691f, -0.115707f, 0.121610f,  -0.048441f,
  0.151530f,  0.013064f,  0.071546f,  -0.006759f, -0.123817f, 0.117380f,
  -0.075895f, -0.060413f, -0.098834f, -0.096180f, 0.079286f,  -0.156151f,
  -0.023882f, 0.157242f,  0.119201f,  0.115927f,  -0.079848f, 0.094055f,
  0.076271f,  0.039362f,  0.161975f,  -0.070825f, -0.028111f, 0.033956f,
  -0.064424f, -0.065323f, -0.031897f, -0.001662f, 0.089118f,  -0.055735f,
  -0.086641f, 0.033259f,  -0.009968f, -0.054483f, -0.077925f, -0.060866f,
  0.111131f,  -0.018707f, -0.014059f, 0.158453f,  0.030074f,  -0.064404f,
  0.108719f,  0.003737f,  0.119709f,  0.145686f,  0.035627f,  -0.113763f,
  -0.147996f, -0.016889f, 0.000793f,  0.040206f,  0.139071f,  -0.163796f,
  -0.115886f, -0.062311f, -0.111059f, -0.069903f, 0.087871f,  0.060275f,
  0.013706f,  0.134722f,  0.011737f,  0.045679f,  -0.046897f, 0.026889f,
  0.114737f,  -0.050797f, 0.106587f,  -0.104682f, -0.036998f, -0.120753f,
  -0.069902f, -0.017902f, -0.090404f, -0.130692f, 0.004153f,  -0.098578f,
  0.041352f,  -0.058313f, 0.094031f,  0.010537f,  0.012997f,  -0.164844f,
  0.183454f,  0.141443f,  0.058599f,  0.177079f,  -0.083946f, 0.077151f,
  -0.059628f, -0.070246f, 0.115626f,  -0.042463f, -0.019768f, 0.078772f,
  0.123102f,  -0.170779f, 0.000810f,  0.009865f,  -0.116392f, 0.014658f,
  0.049051f,  -0.029531f, 0.158617f,  0.136316f,  -0.080702f, -0.136620f,
  0.065062f,  0.011546f,  0.063549f,  -0.002782f, 0.020676f,  -0.000283f,
  -0.056018f, -0.068309f, -0.000000f, 0.030425f,  0.142055f,  -0.090118f,
  -0.193154f, 0.012594f,  0.065492f,  0.056648f,  0.011406f,  -0.197284f,
  -0.130518f, -0.016609f, -0.085495f, -0.000355f, 0.121193f,  -0.060428f,
  -0.024534f, -0.126525f, -0.053228f, -0.071310f, -0.029440f, -0.158752f,
  -0.014143f, -0.004029f, 0.027866f,  -0.059427f, -0.100608f, -0.033831f,
  0.069295f,  -0.024600f, -0.028580f, 0.038751f,  -0.067876f, -0.027739f,
  -0.115226f, 0.049559f,  0.107072f,  -0.073300f, 0.019722f,  0.049493f,
  0.106307f,  0.024126f,  0.022765f,  -0.094028f, -0.123881f, -0.179770f,
  0.069594f,  0.216429f,  0.133111f,  -0.024063f, 0.113877f,  -0.052279f,
  -0.035557f, -0.117760f, 0.108470f,  -0.137832f, 0.127602f,  -0.045466f,
  0.081352f,  0.107966f,  0.069118f,  0.016457f,  0.100303f,  -0.020719f,
  -0.143050f, -0.022077f, 0.118157f,  -0.084500f, -0.014716f, -0.015849f,
  0.143287f,  0.057562f,  0.001235f,  -0.118301f, -0.037571f, -0.014949f,
  0.166099f,  0.069445f,  -0.067180f, -0.032778f, 0.094586f,  -0.108307f,
  -0.118313f, -0.138238f, 0.091716f,  -0.040471f, -0.012987f, 0.005475f,
  0.015739f,  0.130678f,  -0.021558f, 0.101774f,  -0.003857f, 0.125987f,
  -0.029875f, 0.119220f,  -0.062376f, -0.115898f, 0.087244f,  0.069014f,
  0.134592f,  0.073016f,  0.023550f,  -0.048917f, 0.065529f,  0.105788f,
  -0.025022f, -0.101395f, -0.095549f, 0.029320f,  -0.093157f, -0.017215f,
  -0.106530f, 0.070061f,  0.045289f,  -0.163910f, -0.119824f, -0.086231f,
  -0.000443f, 0.010127f,  -0.011723f, -0.104826f, -0.116374f, -0.069156f,
  -0.123969f, -0.111465f, 0.011350f,  -0.032160f, -0.045841f, 0.116273f,
  -0.048381f, -0.131233f, 0.050224f,  -0.005148f, -0.012886f, 0.090176f,
  -0.045401f, -0.022073f, 0.010808f,  -0.073338f, 0.260386f,  0.073716f,
  0.111093f,  -0.038294f, -0.043641f, 0.011381f,  0.119804f,  -0.084671f,
  -0.158586f, 0.031602f,  0.089266f,  -0.035983f, 0.008679f,  0.138863f,
  0.111541f,  0.108260f,  -0.010778f, -0.055145f, 0.169894f,  -0.015744f,
  -0.080526f, 0.042821f,  -0.042838f, 0.077537f,  -0.034225f, -0.037586f,
  0.157067f,  -0.024428f, -0.056705f, -0.113147f, 0.032683f,  0.149803f,
  -0.026297f, 0.004217f,  0.033898f,  0.017078f,  0.085147f,  -0.138817f,
  -0.147780f, -0.065677f, -0.156171f, -0.117909f, 0.072990f,  0.072606f,
  0.063034f,  -0.079468f, -0.126768f, -0.007201f, 0.004762f,  -0.056515f,
  -0.061712f, 0.088068f,  -0.000000f, -0.028294f, -0.045506f, 0.039379f,
  -0.078346f, -0.056702f, -0.110953f, -0.057052f, 0.176936f,  -0.055414f,
  -0.017325f, 0.016051f,  -0.064526f, -0.025327f, 0.124454f,  -0.058515f,
  -0.027096f, 0.067773f,  -0.138721f, 0.081795f,  -0.089735f, 0.083916f,
  -0.048249f, -0.021378f, 0.056643f,  0.021829f,  -0.004168f, -0.057562f,
  0.087909f,  -0.018792f, -0.124464f, 0.013710f,  0.179122f,  0.127371f,
  0.143332f,  -0.096501f, 0.014810f,  0.085480f,  0.056285f,  -0.045325f,
  -0.058355f, 0.103902f,  0.125364f,  0.079175f,  0.065433f,  -0.064945f,
  -0.120282f, -0.084048f, 0.041956f,  0.069132f,  0.011200f,  0.124745f,
  0.143807f,  0.149598f,  0.055552f,  0.055681f,  -0.041644f, 0.067175f,
  -0.099870f, 0.160782f,  -0.003219f, 0.137075f,  -0.003107f, -0.092177f,
  0.069659f,  -0.112665f, -0.056042f, 0.070621f,  0.097446f,  -0.026344f,
  -0.164487f, -0.123471f, -0.071957f, 0.145244f,  0.013116f,  -0.013163f,
  -0.006395f, -0.081353f, 0.041960f,  -0.154153f, 0.089585f,  -0.071322f,
  0.108828f,  0.088431f,  -0.103437f, -0.055329f, 0.006310f,  0.045874f,
  0.035206f,  0.097921f,  -0.057349f, 0.035345f,  0.061456f,  -0.089609f,
  -0.088181f, 0.142932f,  -0.149932f, 0.112717f,  0.168905f,  -0.079756f,
  -0.162585f, -0.101595f, -0.046573f, -0.097243f, -0.026596f, 0.051027f,
  -0.140537f, 0.149539f,  -0.059563f, -0.183557f, 0.071132f,  0.096120f,
  0.065783f,  0.064194f,  -0.062154f, 0.025927f,  -0.033151f, -0.117351f,
  0.013599f,  0.161975f,  0.126730f,  0.007347f,  -0.022466f, -0.033247f,
  0.113900f,  -0.090063f, 0.125140f,  -0.037663f, -0.066870f, 0.131912f,
  0.159397f,  -0.007563f, -0.026484f, 0.066654f,  0.029949f,  0.142920f,
  -0.125800f, -0.023572f, 0.143744f,  0.130551f,  -0.052667f, 0.150845f,
  0.062426f,  0.117755f,  0.067369f,  0.052290f,  0.060626f,  0.105027f,
  0.017910f,  0.017098f,  -0.143389f, 0.031329f,  0.027052f,  -0.057927f,
  0.100370f,  -0.135047f, -0.042118f, 0.114230f,  0.124468f,  0.030097f,
  0.015383f,  -0.076839f, -0.124148f, -0.058898f, 0.010402f,  0.084621f,
  0.033300f,  0.031514f,  0.022114f,  0.111146f,  0.032941f,  0.059450f,
  0.035363f,  -0.057889f, 0.045757f,  0.061900f,  0.114879f,  0.147885f,
  0.037791f,  -0.111505f, -0.085586f, 0.070800f,  0.063500f,  -0.105893f,
  0.123109f,  0.026024f,  0.009286f,  -0.124722f, -0.147867f, -0.025934f,
  -0.029668f, 0.098294f,  0.000000f,  0.160435f,  0.096135f,  0.022571f,
  0.011602f,  0.086108f,  -0.068482f, 0.070026f,  -0.180823f, -0.115850f,
  0.082023f,  0.011541f,  0.134426f,  -0.069161f, -0.025759f, 0.136560f,
  -0.017392f, -0.151895f, -0.120301f, 0.149445f,  0.019271f,  0.064394f,
  -0.087642f, -0.055775f, 0.194755f,  0.059324f,  -0.119150f, -0.002943f,
  -0.010701f, -0.123064f, 0.114803f,  -0.018499f, -0.085292f, 0.008198f,
  0.024575f,  -0.124528f, 0.130761f,  -0.030171f, -0.015940f, -0.138088f,
  0.088425f,  0.160404f,  0.154341f,  -0.067874f, -0.040153f, -0.001324f,
  -0.072644f, -0.099146f, -0.006918f, -0.087575f, 0.151659f,  0.066380f,
  -0.056284f, 0.073082f,  0.115846f,  -0.030724f, -0.066223f, 0.005512f,
  -0.099018f, 0.076619f,  -0.061164f, -0.123711f, 0.052485f,  0.012761f,
  0.054023f,  -0.159301f, -0.153996f, -0.085943f, -0.080880f, -0.003904f,
  0.129239f,  0.097358f,  -0.156932f, 0.004804f,  0.042974f,  0.165108f,
  0.007512f,  0.094995f,  -0.076820f, 0.074428f,  0.120594f,  0.040437f,
  0.008576f,  -0.149858f, -0.124957f, 0.135006f,  0.019239f,  0.145393f,
  0.092509f,  -0.054657f, 0.202805f,  -0.129334f, -0.177004f, 0.078254f,
  -0.071485f, -0.081451f, -0.125909f, -0.030794f, -0.020938f, -0.026978f,
  0.104959f,  -0.209637f, 0.131106f,  -0.123144f, 0.149100f,  -0.135775f,
  0.082053f,  -0.038548f, 0.006090f,  -0.027909f, -0.115217f, -0.121238f,
  0.127087f,  0.059541f,  0.112627f,  0.049494f,  0.096366f,  -0.050809f,
  0.158614f,  0.033874f,  0.137848f,  0.093465f,  -0.006055f, 0.147069f,
  -0.086687f, -0.068249f, 0.009151f,  0.014937f,  0.054790f,  -0.068868f,
  -0.027253f, 0.060145f,  0.005454f,  -0.042347f, 0.130215f,  0.138637f,
  0.125978f,  0.102474f,  -0.117507f, -0.043653f, -0.059907f, -0.153429f,
  -0.039552f, -0.012257f, -0.144634f, -0.167011f, -0.029897f, 0.012966f,
  -0.080475f, -0.120617f, -0.100484f, 0.059807f,  -0.129745f, 0.122318f,
  0.125094f,  -0.077666f, 0.123836f,  0.092713f,  -0.138681f, 0.027704f,
  -0.081089f, -0.020689f, 0.058809f,  0.034186f,  -0.136316f, -0.161045f,
  0.081370f,  0.087682f,  -0.031429f, -0.078748f, -0.107978f, -0.020673f,
  -0.151918f, 0.050715f,  0.164204f,  -0.030717f, 0.127031f,  0.127320f,
  -0.022924f, -0.093200f, 0.128959f,  -0.153239f, 0.098178f,  0.005048f,
  -0.148580f, 0.031031f,  -0.090482f, 0.121429f,  0.122808f,  -0.186330f,
  0.025530f,  0.060725f,  -0.000000f, -0.042509f, 0.126012f,  -0.071749f,
  -0.125575f, 0.036501f,  0.139348f,  0.167095f,  0.003696f,  0.108863f,
  0.157545f,  -0.094821f, 0.081495f,  -0.048695f, 0.072431f,  -0.013171f,
  -0.076898f, 0.077686f,  -0.098692f, 0.054988f,  0.105099f,  -0.038848f,
  0.140146f,  0.122669f,  -0.106809f, -0.191228f, -0.029726f, 0.048764f,
  0.019937f,  -0.133706f, 0.180020f,  -0.048374f, 0.068813f,  -0.085908f,
  0.025006f,  0.135531f,  0.057453f,  -0.021632f, 0.019078f,  -0.133635f,
  -0.053177f, -0.061167f, -0.021734f, -0.120168f, -0.119851f, 0.004711f,
  0.139985f,  0.129198f,  0.040099f,  -0.114927f, -0.123724f, 0.010911f,
  -0.011687f, -0.122326f, -0.069357f, 0.011136f,  0.054874f,  -0.140858f,
  -0.036115f, -0.107632f, 0.132439f,  0.043059f,  0.063202f,  -0.171611f,
  0.076645f,  0.078806f,  0.065473f,  0.064303f,  -0.094542f, 0.120980f,
  -0.092799f, -0.021402f, -0.083525f, 0.042622f,  -0.027088f, 0.105936f,
  -0.006114f, 0.006664f,  0.001257f,  0.145823f,  0.143788f,  0.067214f,
  -0.024355f, -0.078217f, 0.071674f,  -0.123107f, -0.188025f, 0.150493f,
  -0.034036f, -0.168739f, 0.024190f,  -0.071982f, 0.044277f,  0.047671f,
  -0.068984f, 0.040720f,  -0.172282f, 0.108037f,  0.004053f,  -0.117263f,
  0.076152f,  0.121276f,  0.023999f,  0.065958f,  -0.030174f, -0.076430f,
  0.047549f,  0.035798f,  -0.019734f, 0.141467f,  0.102422f,  -0.091606f,
  -0.024751f, 0.149434f,  0.098341f,  -0.196562f, 0.066024f,  -0.113823f,
  0.061794f,  -0.096109f, -0.090294f, 0.089225f,  0.033007f,  -0.140783f,
  0.125009f,  -0.179448f, 0.089214f,  -0.018432f, -0.064388f, 0.113066f,
  0.148428f,  0.012748f,  0.073572f,  0.129186f,  -0.154726f, 0.125709f,
  0.144724f,  -0.073019f, -0.036994f, -0.154653f, -0.083253f, -0.139809f,
  0.187814f,  0.037250f,  -0.009987f, 0.171751f,  -0.025044f, -0.071196f,
  -0.158623f, 0.054940f,  -0.057765f, -0.111841f, -0.175622f, -0.078097f,
  -0.077730f, 0.070971f,  0.042558f,  -0.015357f, 0.103435f,  -0.129352f,
  0.012985f,  0.047945f,  -0.129176f, -0.026733f, 0.022565f,  -0.124087f,
  0.143194f,  -0.050523f, 0.077337f,  0.075431f,  0.104609f,  0.029124f,
  -0.235904f, 0.100153f,  0.112214f,  0.143452f,  0.090110f,  0.014121f,
  0.109665f,  -0.024427f, -0.055939f, 0.118984f,  0.001097f,  -0.132126f,
  0.023891f,  0.086533f,  0.044854f,  -0.034993f, 0.111560f,  0.016179f,
  -0.047452f, -0.130028f, -0.000000f, -0.344016f, -0.105422f, -0.133275f,
  -0.122944f, -0.098354f, 0.126954f,  -0.142037f, 0.060800f,  -0.055724f,
  0.068460f,  0.021916f,  0.084341f,  -0.071548f, 0.033159f,  -0.032677f,
  -0.065732f, 0.103687f,  -0.042380f, -0.119718f, -0.129845f, 0.025008f,
  -0.003150f, -0.009966f, -0.038336f, 0.064141f,  -0.056574f, 0.022810f,
  -0.160176f, 0.060951f,  -0.118437f, -0.150449f, -0.071493f, -0.093854f,
  0.019444f,  -0.047117f, 0.089324f,  0.029990f,  -0.059056f, -0.179770f,
  -0.073827f, 0.156407f,  0.134123f,  0.060526f,  -0.078146f, -0.033855f,
  -0.064369f, -0.121299f, -0.016591f, 0.114796f,  0.059914f,  -0.040950f,
  -0.129879f, 0.067149f,  -0.050859f, 0.049751f,  -0.068220f, -0.091267f,
  0.127512f,  -0.122722f, -0.104806f, -0.165316f, -0.096133f, 0.074647f,
  -0.084915f, 0.045781f,  -0.095575f, 0.141161f,  0.092459f,  0.107152f,
  -0.067567f, 0.082006f,  0.146928f,  -0.029481f, -0.121344f, 0.036932f,
  0.025641f,  -0.105247f, 0.138145f,  0.132156f,  0.054688f,  0.046777f,
  0.032447f,  -0.068561f, -0.112800f, -0.045253f, 0.089798f,  0.047217f,
  -0.094058f, -0.020182f, -0.221080f, 0.031807f,  0.176804f,  0.054104f,
  0.107166f,  -0.121949f, 0.153796f,  -0.006085f, 0.060107f,  -0.073547f,
  -0.025260f, 0.076377f,  0.150440f,  -0.007547f, 0.028787f,  0.023851f,
  -0.036708f, 0.164238f,  -0.131293f, -0.056905f, -0.141927f, 0.134598f,
  0.031933f,  0.189891f,  0.093464f,  0.000626f,  0.067108f,  0.116459f,
  -0.168854f, -0.095919f, -0.182605f, -0.108476f, 0.005638f,  -0.083301f,
  0.087269f,  0.073764f,  0.102331f,  -0.175123f, 0.043911f,  0.037193f,
  -0.080666f, 0.028617f,  0.069648f,  -0.102514f, -0.104859f, -0.002005f,
  -0.146831f, -0.181601f, -0.147906f, 0.010942f,  -0.152594f, -0.034713f,
  -0.120565f, 0.014854f,  0.046521f,  0.040241f,  0.000635f,  0.151704f,
  0.106120f,  -0.017131f, -0.138368f, 0.033624f,  0.025226f,  -0.069868f,
  0.136592f,  0.136569f,  -0.116402f, -0.088312f, 0.018731f,  0.026938f,
  0.001442f,  -0.055797f, -0.065468f, -0.011354f, -0.200639f, 0.030099f,
  0.013893f,  0.103609f,  0.049245f,  0.094905f,  0.138581f,  0.143401f,
  -0.133899f, 0.066606f,  -0.119704f, -0.100471f, -0.089802f, 0.134610f,
  0.028433f,  0.014929f,  0.019450f,  0.007938f,  -0.148115f, 0.018242f,
  -0.126262f, 0.089477f,  0.039746f,  0.043999f,  -0.133046f, 0.000778f,
  -0.017916f, -0.065492f, -0.000000f, -0.061826f, -0.022482f, 0.091575f,
  -0.097065f, 0.139796f,  0.167483f,  -0.027719f, 0.076503f,  -0.114174f,
  -0.097077f, 0.127623f,  0.078053f,  -0.104206f, -0.034619f, 0.042078f,
  0.122756f,  0.010630f,  -0.141000f, 0.039767f,  0.125495f,  -0.112470f,
  -0.134883f, 0.139151f,  -0.086287f, -0.020129f, 0.075280f,  0.015842f,
  0.111022f,  -0.096549f, 0.175961f,  0.096589f,  -0.116500f, -0.128548f,
  -0.126973f, -0.025697f, -0.122681f, 0.109200f,  -0.067384f, -0.041655f,
  -0.013711f, 0.029716f,  0.070739f,  0.111610f,  0.095760f,  -0.014560f,
  0.007399f,  -0.171937f, 0.053595f,  -0.043371f, -0.097224f, 0.092303f,
  0.063918f,  -0.043825f, -0.137677f, -0.064693f, 0.011067f,  0.095501f,
  -0.123247f, -0.120651f, 0.122010f,  0.086039f,  0.049173f,  -0.030140f,
  0.089096f,  0.098756f,  0.081450f,  0.141985f,  0.081310f,  0.041614f,
  0.089790f,  -0.069992f, 0.091372f,  0.083888f,  0.105231f,  -0.081058f,
  -0.048507f, -0.042896f, 0.147573f,  0.028834f,  -0.073438f, 0.145985f,
  0.118813f,  0.053164f,  0.033018f,  0.065504f,  -0.082603f, 0.048418f,
  -0.079830f, 0.079359f,  -0.205069f, 0.117387f,  0.089542f,  -0.010869f,
  0.114548f,  0.108626f,  -0.009950f, 0.014488f,  0.195773f,  -0.057761f,
  -0.081917f, 0.095732f,  -0.113659f, -0.082187f, 0.106876f,  -0.011206f,
  0.011248f,  -0.085198f, -0.005973f, -0.043480f, 0.013473f,  -0.018212f,
  0.004425f,  0.158706f,  0.013829f,  -0.062024f, -0.050610f, 0.022643f,
  -0.194469f, 0.040683f,  -0.081303f, 0.072157f,  0.016106f,  0.018909f,
  0.008284f,  -0.034552f, -0.010138f, -0.125398f, 0.130474f,  -0.090025f,
  0.093734f,  0.005474f,  0.011974f,  0.055934f,  -0.104865f, 0.108596f,
  0.133437f,  -0.014812f, 0.003858f,  -0.141251f, -0.094264f, -0.143131f,
  -0.113216f, 0.088100f,  -0.132411f, 0.066720f,  0.076077f,  -0.137868f,
  -0.113942f, -0.069142f, -0.077673f, -0.167989f, -0.046831f, -0.048227f,
  0.114713f,  0.088154f,  -0.137154f, -0.123395f, -0.087857f, 0.072992f,
  -0.042194f, 0.071693f,  0.095247f,  0.001882f,  -0.033609f, -0.151648f,
  -0.105850f, -0.079053f, -0.062583f, -0.036768f, -0.006039f, 0.027528f,
  0.074149f,  0.067122f,  -0.009695f, -0.035743f, -0.135931f, -0.018496f,
  0.075540f,  0.010967f,  -0.033591f, 0.074359f,  -0.159153f, -0.146419f,
  -0.030426f, -0.042092f, 0.078419f,  -0.008990f, -0.006984f, -0.011261f,
  0.002124f,  -0.128550f, -0.000000f, -0.001887f, -0.102489f, -0.139383f,
  -0.124546f, 0.140305f,  -0.037662f, 0.103416f,  0.052025f,  0.057805f,
  0.107820f,  -0.120198f, 0.101750f,  0.108065f,  -0.091260f, 0.093318f,
  0.003231f,  0.023987f,  -0.140383f, 0.109119f,  0.021814f,  0.043161f,
  -0.011675f, -0.019661f, 0.079780f,  -0.025926f, 0.145029f,  -0.049623f,
  -0.085278f, -0.056928f, -0.001508f, 0.036510f,  -0.070264f, -0.056455f,
  0.147696f,  -0.065731f, 0.081721f,  0.088543f,  -0.051280f, -0.104470f,
  0.056034f,  0.127392f,  0.005306f,  0.059345f,  0.039433f,  0.123190f,
  -0.115349f, -0.161453f, 0.033760f,  0.083874f,  -0.109929f, -0.080629f,
  -0.108235f, -0.044091f, 0.010700f,  -0.064844f, -0.114619f, 0.144184f,
  -0.043184f, -0.000816f, -0.026197f, 0.079925f,  -0.000771f, 0.132601f,
  -0.057657f, -0.066810f, -0.148223f, 0.129194f,  0.072820f,  0.056441f,
  -0.061255f, 0.034924f,  0.089972f,  -0.092005f, 0.053572f,  0.031765f,
  0.033836f,  -0.128946f, 0.126186f,  0.075756f,  -0.030465f, 0.160317f,
  -0.148546f, -0.126914f, 0.080852f,  -0.054687f, 0.129765f,  0.112828f,
  0.034154f,  -0.101845f, 0.023150f,  0.116475f,  0.106289f,  -0.000209f,
  -0.073482f, 0.049365f,  -0.067045f, -0.095285f, 0.032613f,  0.108048f,
  -0.089582f, 0.141857f,  0.088688f,  -0.134229f, -0.038734f, -0.154251f,
  0.151760f,  0.046092f,  0.086286f,  0.023554f,  -0.122004f, 0.014908f,
  0.189381f,  0.052786f,  0.101408f,  0.073279f,  -0.139864f, -0.174696f,
  0.025873f,  -0.014399f, -0.021469f, -0.039457f, -0.152771f, 0.049324f,
  -0.128462f, -0.081525f, -0.070366f, -0.097621f, -0.015696f, 0.035387f,
  0.123421f,  0.010639f,  -0.045506f, 0.042672f,  -0.140816f, -0.160745f,
  -0.152680f, 0.011258f,  0.006648f,  0.094142f,  0.082318f,  -0.016702f,
  0.011764f,  0.031666f,  -0.125045f, -0.058577f, 0.122463f,  -0.010161f,
  -0.096355f, 0.148177f,  0.039521f,  -0.097702f, 0.064341f,  0.077037f,
  -0.085199f, -0.010465f, -0.055742f, -0.056297f, -0.032963f, 0.021443f,
  -0.124550f, -0.014638f, 0.059356f,  -0.162091f, 0.142084f,  0.146806f,
  -0.103449f, 0.114020f,  0.004121f,  0.037097f,  -0.105685f, 0.100189f,
  0.151546f,  -0.051836f, -0.096003f, 0.026891f,  -0.109247f, 0.085442f,
  0.055669f,  -0.138056f, -0.098818f, -0.052877f, -0.054013f, -0.097174f,
  -0.154697f, 0.165883f,  -0.041247f, -0.021321f, -0.059611f, -0.106916f,
  -0.075199f, 0.076000f,  -0.000000f, 0.056794f,  -0.067138f, -0.042201f,
  0.054426f,  0.165292f,  -0.024525f, -0.019658f, 0.180404f,  0.079891f,
  -0.126469f, 0.001443f,  -0.032317f, 0.029633f,  -0.123687f, 0.113102f,
  0.005914f,  0.133961f,  -0.060411f, -0.220627f, 0.111576f,  0.068777f,
  -0.057073f, -0.067237f, -0.171035f, -0.041171f, 0.127205f,  0.124186f,
  0.038950f,  0.011710f,  0.068500f,  -0.170933f, 0.145050f,  -0.153668f,
  -0.157381f, -0.151207f, 0.059737f,  -0.023631f, -0.060232f, 0.102443f,
  -0.049310f, -0.187081f, -0.184153f, -0.060353f, 0.010502f,  -0.110862f,
  -0.051849f, 0.044255f,  0.121344f,  -0.054087f, -0.065869f, -0.020808f,
  0.081408f,  0.030310f,  0.165829f,  -0.102127f, -0.034216f, 0.050729f,
  0.001405f,  0.115932f,  0.128597f,  0.109627f,  0.144142f,  0.077123f,
  0.013990f,  -0.075566f, 0.002227f,  0.042509f,  0.047368f,  0.141040f,
  -0.004739f, 0.085741f,  0.048333f,  0.010722f,  -0.048191f, -0.096538f,
  0.108979f,  0.047171f,  -0.065424f, 0.176675f,  -0.036055f, -0.154084f,
  -0.152007f, 0.111376f,  -0.093237f, 0.036820f,  0.091622f,  0.030620f,
  0.014729f,  0.026876f,  -0.078858f, 0.058245f,  -0.064945f, -0.018057f,
  0.045770f,  -0.009654f, -0.013900f, -0.142489f, -0.248780f, -0.083381f,
  -0.013972f, 0.227767f,  0.056201f,  0.061607f,  0.110296f,  0.059485f,
  0.004872f,  0.146428f,  0.032192f,  0.054925f,  -0.182372f, -0.105641f,
  0.015489f,  -0.172403f, 0.122267f,  -0.043087f, -0.055934f, 0.001172f,
  0.125545f,  0.022085f,  0.242845f,  0.137083f,  -0.137566f, 0.050671f,
  0.052084f,  0.126413f,  -0.118943f, 0.117554f,  0.157826f,  -0.035594f,
  0.032925f,  0.056954f,  -0.062941f, 0.130658f,  0.066766f,  -0.096938f,
  -0.016975f, 0.045826f,  -0.131111f, 0.086636f,  0.120860f,  -0.067609f,
  0.041307f,  -0.080292f, -0.064936f, -0.025532f, -0.098948f, -0.064774f,
  0.058489f,  0.139753f,  0.048478f,  0.008728f,  -0.006152f, 0.137819f,
  0.017710f,  -0.094372f, 0.085294f,  -0.107530f, 0.124098f,  -0.174526f,
  0.106237f,  0.122052f,  0.186956f,  0.055301f,  -0.066550f, -0.105255f,
  -0.037589f, -0.134052f, -0.057614f, 0.121972f,  0.125926f,  -0.042913f,
  0.252878f,  0.129533f,  -0.081973f, -0.020111f, -0.101387f, -0.020522f,
  0.006828f,  -0.091018f, -0.115565f, -0.048568f, -0.031472f, -0.040459f,
  -0.070157f, -0.075968f, 0.201574f,  0.062024f,  0.020162f,  -0.080236f,
  -0.129275f, 0.138547f,  0.000000f,  -0.006077f, 0.028375f,  -0.076086f,
  0.088694f,  0.121050f,  -0.053667f, 0.080746f,  0.050961f,  0.142316f,
  -0.162600f, -0.071399f, -0.130166f, 0.146836f,  -0.017523f, -0.049985f,
  -0.008544f, -0.116215f, -0.090171f, 0.108089f,  -0.061840f, -0.094253f,
  -0.159370f, -0.078514f, -0.124392f, -0.086551f, -0.115200f, -0.084130f,
  0.109571f,  0.027693f,  0.007848f,  0.055747f,  -0.027785f, -0.014288f,
  -0.080508f, 0.030092f,  0.064818f,  -0.148673f, 0.150538f,  0.043588f,
  0.031880f,  -0.041419f, 0.217326f,  0.101570f,  0.121730f,  0.122934f,
  -0.050669f, -0.170559f, -0.006826f, -0.041042f, 0.064966f,  0.012350f,
  -0.128175f, 0.035645f,  0.084832f,  0.083709f,  -0.163323f, -0.119023f,
  -0.020809f, -0.111468f, -0.144941f, 0.176952f,  -0.074983f, 0.072787f,
  0.040991f,  0.034836f,  0.041620f,  -0.075660f, 0.017850f,  0.044967f,
  0.105414f,  0.057952f,  -0.187504f, 0.097925f,  0.140732f,  -0.009946f,
  -0.126124f, 0.087954f,  0.030983f,  0.152029f,  -0.068787f, 0.059070f,
  0.117523f,  -0.030020f, 0.134743f,  0.049203f,  -0.029879f, 0.033207f,
  -0.098850f, -0.078985f, -0.145831f, -0.081984f, -0.105077f, 0.178493f,
  -0.022308f, 0.100956f,  0.023848f,  0.145276f,  -0.163371f, -0.055935f,
  -0.009242f, -0.017886f, -0.137290f, 0.053816f,  -0.111492f, 0.149454f,
  -0.067838f, 0.033467f,  0.093908f,  0.041313f,  0.019962f,  0.027945f,
  -0.137048f, 0.038703f,  0.030017f,  0.084566f,  0.015553f,  0.056136f,
  0.136481f,  0.131641f,  -0.204219f, -0.112106f, -0.144937f, -0.024984f,
  -0.133737f, 0.042718f,  0.081113f,  0.148251f,  -0.058346f, 0.146132f,
  0.075608f,  -0.148653f, 0.006123f,  0.174639f,  -0.089612f, -0.008389f,
  -0.039996f, -0.092121f, -0.019435f, -0.068591f, -0.089450f, 0.149644f,
  -0.066227f, 0.033902f,  0.041987f,  0.159481f,  0.096613f,  -0.049586f,
  -0.094631f, 0.001761f,  -0.152292f, 0.026968f,  -0.018897f, 0.102974f,
  0.017456f,  -0.142707f, -0.111250f, -0.142181f, -0.097953f, 0.062752f,
  -0.025651f, -0.155109f, -0.105388f, -0.056411f, -0.117362f, -0.000688f,
  0.042257f,  -0.020776f, -0.138496f, -0.022662f, 0.091876f,  0.000252f,
  -0.481740f, 0.056195f,  -0.129900f, -0.064741f, 0.014812f,  0.092791f,
  0.110157f,  -0.094840f, 0.021557f,  0.015802f,  0.021359f,  0.055436f,
  -0.140080f, -0.027779f, -0.042649f, -0.152612f, -0.031452f, -0.032688f,
  0.047486f,  -0.003140f, 0.000000f,  -0.050380f, 0.138903f,  -0.043652f,
  -0.141941f, 0.148666f,  0.182743f,  -0.012314f, 0.008727f,  -0.077915f,
  0.083566f,  -0.043280f, 0.052827f,  -0.244238f, -0.034885f, -0.073134f,
  0.067535f,  0.009189f,  -0.085188f, -0.079335f, 0.093156f,  -0.034971f,
  0.097105f,  -0.117360f, 0.057721f,  0.109503f,  0.041097f,  -0.042554f,
  -0.192806f, -0.095867f, 0.033580f,  0.059934f,  0.098059f,  0.055133f,
  0.091035f,  0.018962f,  0.108741f,  0.043285f,  0.083603f,  -0.030461f,
  -0.124798f, -0.103533f, -0.170447f, -0.062799f, 0.051114f,  -0.029548f,
  0.082646f,  -0.124991f, -0.017352f, 0.000497f,  -0.007215f, 0.051788f,
  -0.009478f, -0.245659f, -0.124538f, -0.175684f, 0.125036f,  0.117033f,
  -0.174455f, -0.036046f, 0.098945f,  -0.101274f, 0.134375f,  0.029705f,
  -0.180894f, -0.040575f, -0.011880f, 0.065338f,  -0.125067f, 0.071993f,
  -0.017754f, 0.129918f,  -0.000373f, -0.160389f, 0.090911f,  0.064472f,
  0.141612f,  -0.012244f, 0.034703f,  -0.051036f, 0.101486f,  0.054449f,
  0.085982f,  0.045117f,  -0.124089f, 0.124951f,  -0.039651f, 0.013953f,
  0.066722f,  0.007221f,  -0.068580f, 0.085995f,  -0.069290f, -0.151896f,
  0.089989f,  -0.259591f, -0.065432f, 0.090778f,  0.241076f,  -0.048458f,
  -0.034943f, 0.147075f,  -0.142716f, 0.008047f,  0.103532f,  0.141882f,
  0.081539f,  -0.073338f, -0.117627f, -0.020756f, 0.052290f,  0.152930f,
  -0.013596f, 0.125525f,  0.140197f,  0.027573f,  -0.152309f, 0.214308f,
  -0.271334f, -0.097874f, -0.131536f, -0.053847f, 0.232847f,  -0.138390f,
  0.057920f,  -0.086220f, -0.008542f, -0.169325f, 0.078673f,  -0.000551f,
  -0.058322f, -0.141303f, 0.048042f,  0.082721f,  0.070070f,  -0.145781f,
  -0.102166f, 0.089164f,  0.139779f,  0.130225f,  -0.004217f, -0.201934f,
  -0.119136f, 0.041818f,  -0.120445f, 0.070086f,  -0.147312f, -0.112013f,
  0.038740f,  0.102416f,  -0.092883f, -0.134402f, 0.053808f,  0.012538f,
  0.012285f,  -0.011254f, 0.015182f,  -0.015815f, -0.060097f, 0.083351f,
  -0.035907f, -0.155322f, 0.062063f,  0.050114f,  -0.064047f, 0.053040f,
  0.009170f,  -0.127932f, -0.029025f, -0.066994f, -0.074671f, -0.070031f,
  0.156231f,  0.009565f,  0.010883f,  0.012986f,  -0.042171f, 0.032117f,
  -0.020932f, 0.111443f,  -0.045306f, -0.091703f, 0.006464f,  -0.109462f,
  0.088421f,  0.001447f,  -0.081603f, -0.070460f, 0.007969f,  0.055935f,
  0.080935f,  -0.002556f, -0.000000f, -0.047537f, -0.057221f, 0.090390f,
  -0.086395f, 0.075660f,  0.029816f,  -0.033542f, 0.117265f,  -0.098061f,
  -0.047730f, 0.165027f,  0.087498f,  0.054968f,  0.085454f,  -0.085236f,
  -0.003708f, -0.126109f, 0.041770f,  -0.006283f, 0.042404f,  0.149433f,
  -0.146204f, 0.081792f,  -0.136132f, 0.125940f,  -0.075287f, 0.007483f,
  0.085760f,  0.222882f,  0.154004f,  -0.015821f, 0.073248f,  -0.125339f,
  -0.144408f, -0.022420f, -0.052600f, 0.132569f,  0.032997f,  -0.156650f,
  -0.041049f, 0.085820f,  -0.087211f, -0.151032f, -0.085103f, -0.063779f,
  0.028889f,  0.121159f,  -0.037009f, -0.114376f, -0.126641f, -0.100205f,
  0.059720f,  -0.066623f, -0.101782f, -0.019791f, -0.023045f, 0.083061f,
  -0.034860f, -0.055537f, -0.070574f, -0.137098f, 0.039550f,  -0.090857f,
  0.095626f,  0.082341f,  0.005727f,  -0.108733f, 0.007679f,  0.148053f,
  0.091109f,  0.071792f,  0.116312f,  -0.156993f, -0.081691f, -0.010852f,
  0.063678f,  -0.074806f, -0.059336f, 0.001416f,  0.025427f,  -0.082627f,
  -0.019977f, -0.133993f, 0.113879f,  -0.106207f, 0.014990f,  0.135399f,
  0.020869f,  0.088501f,  0.140155f,  -0.105598f, -0.098718f, 0.157707f,
  -0.155035f, 0.060419f,  0.086189f,  -0.134596f, -0.040182f, 0.084946f,
  0.139272f,  -0.079122f, 0.060962f,  -0.123211f, 0.035793f,  0.119780f,
  0.094765f,  0.085264f,  -0.012865f, -0.054429f, 0.096860f,  0.041673f,
  0.116986f,  0.016534f,  0.063205f,  0.075919f,  0.091782f,  -0.086850f,
  -0.043495f, 0.033048f,  0.029191f,  -0.087704f, 0.121108f,  0.057731f,
  0.122034f,  -0.024713f, 0.088506f,  0.051037f,  0.066486f,  -0.003856f,
  0.037933f,  -0.050026f, -0.135190f, 0.127929f,  -0.104037f, -0.100208f,
  -0.129309f, -0.011125f, -0.103621f, 0.070070f,  0.014012f,  0.117857f,
  0.010274f,  -0.079117f, -0.066096f, -0.182947f, 0.033881f,  -0.168202f,
  0.088354f,  0.093574f,  -0.071877f, 0.073255f,  0.061497f,  0.136155f,
  -0.038191f, -0.180044f, -0.073079f, 0.123585f,  0.090911f,  0.086120f,
  -0.118016f, 0.162873f,  0.142766f,  0.282997f,  -0.056833f, 0.155616f,
  0.061242f,  -0.049728f, -0.114569f, 0.049377f,  -0.118109f, -0.222147f,
  0.146233f,  0.070127f,  -0.029061f, 0.106262f,  -0.100103f, -0.071176f,
  0.134479f,  -0.125915f, -0.060403f, -0.034095f, -0.124659f, 0.057390f,
  0.022559f,  0.068140f,  0.009186f,  -0.053784f, 0.045472f,  -0.119004f,
  -0.085493f, -0.140661f, 0.000000f,  0.127904f,  -0.072352f, 0.136183f,
  0.037429f,  -0.040166f, 0.029692f,  0.097859f,  0.055989f,  -0.009012f,
  -0.061157f, 0.048839f,  0.096424f,  0.163328f,  0.036243f,  0.054365f,
  -0.022738f, 0.066753f,  -0.127268f, -0.046400f, 0.048527f,  -0.063838f,
  0.108031f,  -0.038663f, 0.116823f,  -0.091074f, 0.106692f,  -0.268434f,
  0.041022f,  0.018991f,  0.159317f,  0.060581f,  0.134680f,  -0.025711f,
  -0.084311f, 0.149305f,  0.190200f,  0.076428f,  -0.119464f, -0.058979f,
  0.034610f,  0.054258f,  0.090456f,  -0.167530f, -0.045625f, -0.026317f,
  -0.000819f, 0.058161f,  0.035755f,  0.108862f,  -0.041019f, 0.078209f,
  0.046140f,  0.048144f,  -0.096935f, 0.014379f,  0.066356f,  0.098479f,
  0.031433f,  -0.088806f, 0.050184f,  0.104268f,  0.071433f,  0.046648f,
  0.078554f,  -0.133398f, -0.110624f, -0.004583f, -0.084002f, 0.021691f,
  -0.021726f, -0.007695f, -0.188729f, 0.084533f,  -0.087189f, -0.165247f,
  -0.005713f, 0.049313f,  -0.050043f, -0.119506f, -0.138893f, -0.049269f,
  -0.011812f, -0.093023f, -0.033329f, 0.125941f,  -0.037742f, 0.124148f,
  0.045501f,  -0.020477f, -0.029668f, -0.064961f, -0.160903f, 0.093163f,
  0.133935f,  -0.001203f, 0.034110f,  -0.047425f, -0.111381f, 0.092026f,
  -0.016609f, 0.062072f,  -0.037108f, 0.133777f,  -0.134402f, 0.162610f,
  -0.043361f, 0.042058f,  0.015178f,  0.008873f,  -0.099797f, 0.083836f,
  0.008754f,  -0.037977f, 0.054089f,  -0.136726f, 0.022121f,  -0.120720f,
  0.058210f,  -0.165905f, -0.034691f, -0.093851f, -0.096792f, 0.153397f,
  0.021428f,  -0.040534f, 0.026669f,  0.115466f,  -0.030203f, -0.037726f,
  0.094337f,  -0.062648f, 0.041458f,  -0.023025f, -0.114717f, 0.094482f,
  -0.011073f, 0.017663f,  0.097416f,  -0.017989f, 0.053639f,  0.142334f,
  -0.048979f, -0.108797f, -0.109163f, 0.164004f,  -0.108682f, 0.158861f,
  0.052617f,  0.021457f,  -0.060464f, 0.143763f,  0.092177f,  -0.124126f,
  0.015937f,  0.142307f,  0.135324f,  -0.069025f, -0.135109f, -0.022604f,
  -0.127887f, 0.014359f,  -0.192453f, -0.018323f, -0.152872f, -0.051057f,
  0.150213f,  0.022269f,  -0.091061f, 0.101764f,  -0.143181f, -0.085019f,
  0.057291f,  0.136342f,  -0.049252f, -0.071749f, -0.051776f, 0.143080f,
  -0.111365f, -0.055098f, -0.155588f, 0.142621f,  -0.059273f, 0.021858f,
  -0.116701f, -0.152596f, -0.088384f, -0.130310f, -0.087130f, 0.086231f,
  0.025168f,  0.021801f,  0.000000f,  -0.102395f, 0.081570f,  0.002979f,
  -0.094503f, 0.067341f,  -0.058681f, 0.018239f,  -0.107295f, 0.103254f,
  -0.165576f, -0.049858f, 0.104991f,  -0.073096f, -0.052583f, 0.074538f,
  -0.132352f, -0.048176f, -0.131622f, -0.023750f, -0.147697f, -0.129725f,
  0.143461f,  0.049368f,  -0.082802f, -0.034443f, 0.020838f,  0.153834f,
  -0.054950f, 0.067078f,  -0.155862f, 0.114610f,  0.087910f,  0.096798f,
  0.056652f,  -0.027052f, 0.030514f,  0.045055f,  -0.022557f, 0.114414f,
  0.082546f,  -0.013270f, 0.095523f,  0.050225f,  -0.158738f, -0.076657f,
  0.076284f,  0.106199f,  0.000595f,  -0.101582f, -0.114438f, 0.026583f,
  -0.015202f, -0.155693f, -0.069642f, -0.144265f, -0.095150f, 0.148267f,
  0.100837f,  -0.059381f, -0.092672f, -0.184232f, 0.077657f,  0.094837f,
  -0.013444f, 0.102790f,  0.108540f,  -0.040573f, 0.112692f,  0.047973f,
  -0.070387f, -0.069656f, 0.191540f,  -0.034898f, -0.086226f, 0.075209f,
  0.026146f,  0.060056f,  0.099703f,  -0.141336f, 0.146296f,  0.086403f,
  -0.127451f, 0.071737f,  -0.008646f, -0.035313f, 0.034979f,  -0.094458f,
  0.086867f,  0.001779f,  -0.156742f, 0.094311f,  0.083487f,  -0.121409f,
  -0.146848f, -0.198377f, 0.091480f,  0.143001f,  -0.037096f, -0.044235f,
  -0.098794f, -0.075135f, -0.090263f, 0.080371f,  0.068794f,  0.076794f,
  0.143082f,  -0.065108f, -0.096232f, 0.145730f,  0.076746f,  0.154412f,
  0.029810f,  0.138309f,  0.015267f,  0.099288f,  0.067162f,  -0.071433f,
  0.047187f,  -0.002237f, -0.090922f, -0.031502f, 0.075260f,  0.016008f,
  0.010733f,  0.014859f,  0.155984f,  -0.128074f, -0.157971f, 0.126848f,
  0.099776f,  -0.080818f, -0.058933f, -0.078137f, 0.008559f,  0.015352f,
  -0.122546f, 0.012467f,  0.016282f,  -0.064086f, -0.002764f, -0.178716f,
  0.122194f,  -0.043312f, -0.080811f, -0.031462f, -0.082346f, -0.072066f,
  0.134912f,  0.134950f,  0.072706f,  0.031247f,  -0.018224f, 0.025596f,
  0.037808f,  -0.030071f, -0.007115f, 0.153020f,  0.111377f,  0.094850f,
  0.143467f,  -0.047015f, 0.174874f,  -0.118795f, -0.016700f, 0.023869f,
  0.101975f,  -0.004142f, 0.168812f,  0.009999f,  -0.036993f, -0.075778f,
  -0.048150f, -0.137480f, -0.169627f, 0.074573f,  0.130085f,  0.122884f,
  -0.099476f, -0.103254f, 0.007755f,  0.030109f,  0.099251f,  0.034864f,
  0.146817f,  0.124666f,  0.153212f,  -0.081448f, 0.135400f,  0.011840f,
  0.012940f,  0.164997f,  0.000000f,  -0.022693f, -0.136316f, 0.169456f,
  -0.085689f, 0.118875f,  -0.004027f, -0.020416f, -0.127802f, 0.075908f,
  -0.114051f, 0.082297f,  0.152385f,  -0.019854f, -0.069505f, -0.046733f,
  0.058583f,  -0.168751f, -0.012279f, -0.039629f, 0.021389f,  -0.003029f,
  0.020547f,  0.031169f,  0.102206f,  0.083184f,  -0.117733f, -0.139927f,
  -0.074699f, -0.039974f, 0.082942f,  0.120363f,  -0.066993f, -0.095600f,
  0.057474f,  -0.070887f, 0.065044f,  0.144984f,  -0.004627f, -0.013416f,
  -0.121786f, -0.153092f, -0.038911f, -0.007784f, -0.015728f, 0.169714f,
  0.147083f,  -0.160151f, -0.042237f, 0.003587f,  0.116124f,  0.019072f,
  0.073841f,  0.114494f,  -0.021587f, 0.142569f,  0.056037f,  -0.015420f,
  0.022879f,  0.160389f,  -0.019934f, -0.088026f, 0.013832f,  -0.200926f,
  0.125867f,  -0.052476f, 0.146296f,  0.131245f,  0.029926f,  0.045342f,
  -0.089852f, -0.166890f, -0.079052f, -0.083276f, -0.001370f, -0.150064f,
  -0.096076f, 0.065802f,  0.124555f,  0.165843f,  -0.042413f, -0.097611f,
  -0.065705f, 0.067679f,  0.174757f,  -0.117047f, -0.082947f, 0.100761f,
  -0.157952f, -0.168805f, -0.005292f, -0.109280f, 0.161719f,  -0.095793f,
  0.012494f,  -0.019632f, 0.079270f,  -0.033825f, -0.118331f, 0.100176f,
  -0.055715f, -0.118184f, 0.001397f,  0.142305f,  0.074693f,  0.069274f,
  0.067089f,  -0.115964f, -0.073504f, -0.117488f, -0.012969f, -0.022167f,
  -0.085825f, -0.080076f, 0.085701f,  -0.084197f, 0.140365f,  0.062724f,
  -0.015448f, 0.023840f,  0.009093f,  -0.167088f, -0.124537f, -0.085865f,
  0.015104f,  0.128726f,  -0.104297f, 0.144187f,  0.002675f,  -0.081212f,
  0.079986f,  -0.086505f, -0.133186f, -0.127081f, 0.035982f,  -0.038359f,
  -0.070216f, -0.041939f, -0.025566f, -0.209160f, -0.183588f, 0.033254f,
  0.013581f,  -0.126942f, 0.089629f,  -0.013838f, 0.170644f,  0.108875f,
  -0.021178f, -0.127021f, -0.108675f, 0.149147f,  -0.071258f, -0.058592f,
  -0.102503f, 0.090516f,  0.025014f,  -0.103345f, 0.093623f,  0.112548f,
  0.169336f,  0.001224f,  0.105762f,  0.054985f,  -0.016444f, -0.075347f,
  0.049231f,  0.098202f,  -0.048187f, 0.049870f,  -0.091691f, 0.044781f,
  0.186531f,  0.014545f,  -0.006659f, -0.179920f, -0.133829f, 0.012661f,
  -0.142233f, 0.057815f,  -0.032669f, -0.047937f, -0.026239f, -0.078173f,
  -0.090074f, 0.029735f,  0.049962f,  0.187354f,  -0.122743f, 0.060219f,
  -0.018967f, -0.156024f, 0.000000f,  0.007753f,  0.010594f,  -0.112128f,
  0.085551f,  -0.059861f, -0.050909f, -0.039108f, -0.161537f, 0.057351f,
  -0.009266f, -0.001121f, -0.139533f, -0.042328f, -0.065873f, -0.050181f,
  -0.134357f, -0.145618f, 0.100741f,  -0.103794f, 0.076408f,  -0.089794f,
  0.138299f,  -0.029269f, 0.095815f,  0.116070f,  0.121926f,  -0.097944f,
  0.094491f,  -0.117725f, 0.024908f,  -0.070617f, -0.003154f, -0.061013f,
  -0.061267f, 0.019277f,  0.088531f,  -0.076262f, -0.068881f, -0.152160f,
  0.068670f,  0.135178f,  -0.093455f, -0.084971f, -0.035912f, 0.023031f,
  0.047504f,  -0.195348f, 0.025037f,  0.091569f,  -0.088024f, 0.020469f,
  -0.048407f, 0.040613f,  0.056879f,  -0.118675f, -0.019196f, 0.102522f,
  0.107766f,  0.087995f,  -0.127686f, -0.116398f, -0.054600f, 0.054647f,
  0.021667f,  -0.080856f, -0.079489f, 0.241917f,  -0.035840f, 0.080017f,
  0.060253f,  -0.172195f, 0.046830f,  0.081603f,  0.044890f,  -0.070646f,
  0.024819f,  -0.105933f, 0.119265f,  -0.138831f, -0.026314f, 0.147580f,
  -0.143098f, -0.075846f, -0.105401f, 0.014295f,  0.005480f,  -0.126590f,
  0.112674f,  -0.016064f, 0.034173f,  0.036323f,  0.059952f,  0.113929f,
  0.128445f,  -0.012177f, 0.055347f,  0.177082f,  0.094633f,  -0.148346f,
  0.139522f,  -0.043829f, 0.145018f,  0.112024f,  0.139946f,  -0.109048f,
  -0.019622f, -0.071899f, -0.129496f, 0.013604f,  0.008983f,  -0.006122f,
  -0.118361f, -0.111182f, -0.137804f, -0.123633f, 0.056633f,  0.006947f,
  0.001449f,  0.033030f,  -0.154570f, 0.000747f,  0.003491f,  -0.009575f,
  0.139285f,  0.079683f,  -0.155652f, -0.084571f, -0.068935f, 0.017036f,
  0.049166f,  0.094835f,  0.032359f,  -0.149337f, 0.170690f,  -0.146046f,
  -0.164033f, 0.027406f,  -0.116032f, 0.086597f,  0.016236f,  0.062259f,
  -0.115124f, 0.086154f,  0.062071f,  0.152091f,  -0.130495f, 0.095029f,
  0.063168f,  0.087053f,  0.042204f,  0.043103f,  0.104953f,  -0.068007f,
  0.010821f,  -0.114326f, 0.112712f,  0.061596f,  0.008196f,  0.121746f,
  -0.167920f, 0.008870f,  -0.132530f, -0.041255f, 0.098516f,  0.015073f,
  0.108755f,  -0.024068f, 0.129980f,  -0.079105f, -0.141310f, -0.110826f,
  -0.083516f, 0.111246f,  -0.173491f, -0.044244f, 0.051343f,  0.020019f,
  -0.098042f, -0.081044f, 0.067704f,  0.054992f,  -0.104604f, -0.030172f,
  0.005249f,  0.050468f,  0.008290f,  -0.020421f, -0.063261f, -0.095367f,
  0.023385f,  0.103298f,  -0.000000f, 0.097304f,  0.058691f,  0.161104f,
  -0.066372f, -0.151209f, -0.082772f, 0.140389f,  -0.048678f, -0.045252f,
  0.071385f,  -0.060162f, -0.026382f, 0.049513f,  -0.074005f, 0.058680f,
  -0.058975f, -0.025214f, 0.046338f,  -0.111607f, -0.146756f, 0.122470f,
  -0.091191f, -0.022173f, 0.011062f,  -0.022389f, -0.081589f, 0.096766f,
  -0.047049f, 0.147996f,  -0.098253f, -0.051917f, -0.177013f, -0.154576f,
  0.096713f,  0.076232f,  -0.138797f, -0.075794f, -0.111562f, -0.067709f,
  0.101138f,  -0.076508f, 0.072409f,  -0.078557f, 0.075537f,  0.151351f,
  -0.060991f, -0.036145f, 0.048718f,  -0.071417f, -0.137582f, -0.127779f,
  0.067170f,  0.058631f,  -0.119006f, 0.070757f,  -0.144038f, -0.085468f,
  0.029055f,  -0.136934f, 0.042223f,  -0.025066f, -0.152175f, 0.036962f,
  -0.209876f, 0.020596f,  -0.000628f, 0.152870f,  -0.084926f, 0.073724f,
  0.086107f,  -0.044996f, -0.033488f, -0.031400f, -0.030889f, 0.126535f,
  0.127317f,  -0.027084f, 0.052562f,  0.050393f,  -0.104828f, -0.138084f,
  -0.146872f, 0.160383f,  -0.130414f, -0.153519f, 0.061948f,  -0.041890f,
  0.093513f,  -0.066078f, -0.111872f, 0.060731f,  -0.152810f, -0.043736f,
  -0.110674f, -0.015149f, -0.186269f, -0.009648f, -0.138011f, -0.133468f,
  -0.117304f, 0.041671f,  -0.104224f, 0.004693f,  -0.029487f, -0.084222f,
  -0.011546f, -0.114003f, -0.101661f, -0.015279f, 0.021943f,  -0.009950f,
  0.006000f,  -0.074302f, -0.096173f, -0.135030f, 0.105024f,  -0.129827f,
  -0.074421f, -0.001736f, 0.121009f,  -0.135447f, 0.103430f,  -0.028787f,
  0.165648f,  -0.017515f, 0.031885f,  -0.086502f, -0.006995f, -0.122680f,
  -0.092533f, 0.056935f,  0.065281f,  0.036719f,  -0.021353f, 0.028484f,
  0.057124f,  -0.135451f, 0.114107f,  0.061175f,  0.011076f,  -0.149042f,
  -0.159777f, -0.055232f, 0.178599f,  -0.010858f, 0.184519f,  -0.025525f,
  -0.185726f, 0.062226f,  0.014655f,  0.080122f,  -0.067460f, -0.050390f,
  -0.009228f, -0.123252f, -0.053293f, 0.136414f,  -0.078065f, 0.099766f,
  0.038172f,  -0.032307f, -0.168065f, 0.085868f,  0.154621f,  0.014830f,
  0.080079f,  -0.113711f, -0.097002f, 0.170427f,  0.131277f,  0.066926f,
  -0.307216f, -0.088460f, -0.032876f, 0.030353f,  -0.014212f, 0.056215f,
  0.150704f,  0.100815f,  -0.147956f, -0.060917f, -0.047789f, -0.113214f,
  0.175226f,  -0.108503f, -0.176519f, 0.033971f,  -0.052494f, -0.180939f,
  0.149242f,  -0.096054f, -0.000000f, 0.127170f,  -0.126413f, -0.023264f,
  0.069271f,  -0.011160f, 0.006644f,  0.144838f,  0.158924f,  0.112388f,
  -0.077186f, -0.035018f, 0.037913f,  0.088419f,  0.001539f,  0.101479f,
  0.078964f,  -0.061717f, -0.147473f, -0.036967f, -0.084886f, 0.190980f,
  -0.117060f, 0.178096f,  -0.148927f, -0.108521f, -0.018034f, -0.062067f,
  -0.108904f, -0.249629f, -0.112234f, -0.006181f, 0.099956f,  0.050058f,
  0.183480f,  0.181783f,  0.063646f,  -0.133514f, 0.104797f,  -0.132329f,
  -0.114589f, -0.010510f, -0.088097f, 0.062475f,  0.067352f,  0.046335f,
  0.089858f,  -0.286498f, 0.014888f,  -0.091009f, -0.081927f, 0.019613f,
  0.051914f,  -0.264753f, -0.104287f, 0.121969f,  0.017324f,  0.025716f,
  0.037428f,  0.060661f,  0.044977f,  -0.059268f, -0.091062f, 0.023619f,
  0.018074f,  -0.100260f, -0.088457f, 0.023206f,  -0.026163f, -0.012327f,
  -0.123634f, -0.263007f, -0.017299f, 0.067877f,  -0.110149f, 0.071368f,
  -0.153950f, -0.050269f, -0.071542f, 0.043885f,  0.177802f,  0.017536f,
  0.124640f,  0.025910f,  -0.093527f, 0.014672f,  -0.072337f, -0.141903f,
  -0.081011f, -0.217758f, -0.124155f, 0.190069f,  -0.196714f, -0.095740f,
  0.090558f,  0.014583f,  -0.212317f, -0.068231f, 0.219132f,  0.135089f,
  0.030152f,  -0.088847f, -0.059652f, -0.075848f, -0.081511f, 0.013359f,
  -0.025057f, 0.028814f,  0.173954f,  0.090968f,  0.131381f,  0.170816f,
  -0.010808f, 0.041586f,  0.105617f,  -0.004524f, 0.074315f,  -0.090794f,
  -0.075179f, -0.087317f, -0.180857f, -0.120022f, 0.015456f,  0.118149f,
  0.054757f,  -0.263955f, -0.142313f, -0.126351f, -0.055262f, 0.021733f,
  -0.027749f, 0.124034f,  0.048064f,  0.027337f,  0.164835f,  0.094619f,
  0.040472f,  0.043833f,  0.235668f,  -0.042685f, -0.189200f, -0.002612f,
  0.122376f,  0.006496f,  0.018284f,  0.011577f,  -0.157326f, -0.046133f,
  -0.011908f, -0.152201f, 0.175398f,  -0.038869f, 0.044952f,  0.051370f,
  0.040149f,  -0.049491f, -0.060787f, 0.119506f,  -0.072957f, 0.130413f,
  0.053147f,  -0.025140f, 0.089228f,  -0.047751f, -0.054485f, -0.193014f,
  0.080277f,  0.152653f,  -0.036116f, -0.044917f, -0.047896f, 0.168227f,
  -0.136856f, -0.028731f, 0.058535f,  0.050263f,  0.125066f,  -0.034589f,
  -0.001560f, -0.044146f, -0.051052f, -0.097860f, 0.029757f,  -0.061945f,
  0.092234f,  0.074907f,  -0.081967f, 0.172740f,  0.012518f,  -0.008156f,
  -0.029553f, -0.178483f, -0.000000f, -0.279913f, 0.129919f,  0.001814f,
  0.041948f,  0.087408f,  0.095269f,  -0.104891f, -0.037475f, -0.000393f,
  0.017426f,  0.037078f,  0.065402f,  -0.133591f, 0.063158f,  0.111087f,
  -0.027477f, -0.109220f, -0.052506f, 0.020165f,  0.120765f,  0.135006f,
  -0.086987f, -0.102874f, 0.020526f,  0.181472f,  0.093374f,  0.081629f,
  0.130644f,  0.063991f,  -0.084034f, -0.037941f, -0.025866f, 0.145684f,
  0.030546f,  -0.010846f, -0.138410f, 0.095719f,  0.080424f,  0.081494f,
  0.028819f,  -0.074373f, -0.076671f, -0.187290f, 0.088866f,  0.213366f,
  -0.109007f, 0.005619f,  -0.118515f, 0.120651f,  -0.098876f, -0.084633f,
  -0.162930f, -0.009813f, 0.117040f,  -0.106380f, 0.145544f,  0.019984f,
  -0.135819f, 0.049435f,  -0.057359f, 0.070471f,  -0.072625f, 0.077815f,
  -0.015254f, 0.029510f,  0.115949f,  0.020192f,  0.091999f,  -0.115352f,
  0.239413f,  -0.030108f, -0.106995f, 0.049215f,  0.179435f,  0.014460f,
  0.028720f,  -0.070443f, 0.132525f,  -0.015507f, 0.022134f,  0.172325f,
  -0.063882f, -0.166715f, 0.028342f,  0.114768f,  0.095738f,  -0.011493f,
  0.054884f,  0.032540f,  -0.160215f, -0.061097f, 0.010615f,  -0.039487f,
  -0.043411f, -0.107494f, 0.082555f,  0.032607f,  0.106076f,  -0.097972f,
  0.133426f,  -0.144283f, -0.071684f, -0.001038f, -0.000665f, 0.129849f,
  -0.002429f, -0.042999f, -0.147879f, 0.100337f,  0.028995f,  0.002144f,
  -0.104354f, 0.083057f,  -0.034469f, -0.029660f, 0.114801f,  0.107842f,
  -0.109857f, 0.139238f,  -0.208486f, 0.027915f,  -0.011195f, 0.060113f,
  -0.103079f, -0.171906f, 0.004927f,  -0.152504f, -0.020680f, -0.005864f,
  0.052254f,  0.108044f,  -0.002750f, 0.044912f,  -0.052159f, 0.042884f,
  0.117756f,  0.071562f,  -0.006326f, -0.072140f, -0.117469f, 0.009191f,
  0.120657f,  -0.067225f, -0.068758f, 0.104406f,  -0.068075f, 0.082164f,
  0.072396f,  -0.107021f, -0.193734f, 0.116755f,  -0.002360f, -0.108888f,
  -0.059955f, -0.110759f, 0.092462f,  -0.136020f, -0.173131f, -0.033592f,
  0.043763f,  0.013546f,  0.046584f,  0.002047f,  0.065554f,  -0.130270f,
  -0.131494f, -0.114926f, -0.023042f, -0.014147f, -0.092345f, -0.016189f,
  -0.061471f, 0.081237f,  0.113600f,  0.065888f,  -0.075324f, 0.077765f,
  0.064204f,  0.012506f,  0.087860f,  -0.002951f, 0.176923f,  -0.078632f,
  0.031151f,  -0.141083f, 0.147062f,  -0.010426f, 0.104201f,  0.059974f,
  -0.126103f, 0.121877f,  -0.000000f, 0.188009f,  -0.185161f, -0.042528f,
  0.144651f,  0.153920f,  -0.030734f, -0.016956f, -0.101934f, -0.097332f,
  -0.032632f, 0.027276f,  0.084218f,  0.104740f,  0.014318f,  -0.006682f,
  0.086448f,  -0.003068f, 0.063866f,  -0.154538f, 0.061236f,  0.074608f,
  0.034119f,  -0.040863f, 0.027060f,  -0.051666f, -0.063696f, -0.159388f,
  0.137764f,  0.079932f,  -0.028680f, 0.098326f,  -0.151910f, 0.087414f,
  -0.051007f, 0.087433f,  -0.040499f, 0.102979f,  0.110231f,  -0.128970f,
  0.042741f,  -0.059241f, 0.101387f,  0.002058f,  -0.102387f, 0.070419f,
  -0.063993f, -0.102934f, -0.012428f, 0.115270f,  -0.135371f, -0.022725f,
  -0.086088f, -0.020366f, 0.015513f,  -0.047532f, 0.060567f,  0.043363f,
  0.032403f,  -0.128977f, -0.093388f, 0.087942f,  0.120282f,  -0.097156f,
  -0.059104f, 0.150458f,  0.005561f,  -0.105311f, 0.077598f,  0.012448f,
  0.044857f,  0.146686f,  -0.045104f, -0.106094f, -0.157099f, -0.105979f,
  -0.130755f, 0.029018f,  -0.121529f, 0.112886f,  0.020255f,  -0.190460f,
  -0.044838f, 0.158641f,  -0.020473f, -0.072193f, -0.012016f, 0.009310f,
  -0.107102f, 0.043698f,  -0.060810f, -0.044266f, -0.179306f, -0.057812f,
  -0.119585f, -0.109516f, -0.069046f, -0.041569f, 0.152253f,  0.029765f,
  -0.089233f, -0.140331f, -0.040954f, -0.102295f, 0.077029f,  0.075258f,
  -0.083855f, -0.086246f, -0.053652f, -0.014438f, -0.174366f, 0.049690f,
  0.069721f,  0.038799f,  0.141487f,  -0.119977f, 0.048357f,  -0.077965f,
  0.054520f,  -0.000998f, -0.044179f, 0.076782f,  0.133409f,  -0.123232f,
  0.045963f,  0.160846f,  -0.077445f, -0.020228f, -0.061105f, 0.073587f,
  0.030476f,  -0.016449f, -0.095509f, 0.017190f,  -0.118877f, -0.104730f,
  0.089427f,  -0.059536f, -0.170144f, -0.151985f, 0.030281f,  -0.003215f,
  -0.062475f, 0.129722f,  0.127934f,  -0.130518f, 0.142836f,  -0.117554f,
  0.090466f,  -0.131724f, 0.049627f,  -0.138251f, 0.129516f,  -0.017985f,
  0.019284f,  0.129890f,  -0.138869f, 0.123541f,  0.087795f,  -0.104316f,
  -0.051235f, 0.081954f,  -0.077460f, 0.119811f,  -0.023404f, -0.031405f,
  -0.148979f, 0.032369f,  -0.146593f, -0.075796f, 0.105530f,  -0.084474f,
  -0.073243f, -0.032735f, 0.038561f,  -0.119590f, -0.100598f, -0.011213f,
  0.081596f,  -0.056576f, -0.006028f, 0.116598f,  0.076408f,  -0.058775f,
  0.059328f,  -0.150086f, 0.190217f,  -0.023183f, -0.083682f, -0.106801f,
  -0.193084f, -0.045123f, -0.000000f, -0.040109f, 0.000303f,  0.031304f,
  -0.042914f, 0.123759f,  -0.061083f, 0.032137f,  -0.035268f, 0.166538f,
  0.110919f,  -0.145511f, 0.064593f,  -0.062526f, -0.027145f, -0.057212f,
  -0.125787f, -0.104824f, 0.177612f,  -0.081071f, -0.109813f, 0.173023f,
  0.011966f,  -0.001879f, -0.075405f, 0.157819f,  0.060685f,  -0.009652f,
  -0.003641f, 0.066710f,  0.040165f,  0.012531f,  -0.103719f, -0.104718f,
  0.094077f,  0.143732f,  -0.143641f, 0.085343f,  -0.043169f, 0.094951f,
  -0.083832f, 0.036238f,  0.086031f,  -0.057321f, -0.092322f, 0.171653f,
  0.036966f,  0.000208f,  -0.073982f, -0.070788f, 0.145312f,  -0.056658f,
  0.121306f,  0.009120f,  -0.134919f, 0.002063f,  -0.004796f, -0.077443f,
  -0.097146f, -0.013343f, 0.119503f,  -0.121169f, -0.114480f, -0.208192f,
  0.017807f,  0.090379f,  -0.071917f, 0.140245f,  -0.131414f, 0.093566f,
  0.075768f,  0.136377f,  -0.188907f, -0.076827f, -0.107999f, 0.137757f,
  -0.044636f, 0.110289f,  0.083704f,  0.003448f,  -0.040408f, 0.010054f,
  0.091529f,  -0.142865f, -0.020591f, -0.050114f, -0.121325f, 0.140713f,
  -0.133457f, -0.165611f, 0.038194f,  -0.099908f, -0.133445f, 0.173141f,
  0.141400f,  0.194874f,  -0.055697f, -0.108774f, 0.086352f,  -0.083766f,
  0.098286f,  -0.150535f, 0.125569f,  0.000059f,  0.152282f,  -0.082676f,
  -0.157340f, -0.028598f, 0.037914f,  0.161842f,  -0.030940f, -0.162253f,
  0.010470f,  -0.065562f, -0.018579f, -0.155844f, -0.125691f, -0.090300f,
  0.094402f,  -0.108361f, 0.076846f,  -0.138922f, -0.128983f, -0.035419f,
  -0.079140f, -0.055988f, -0.009212f, 0.218788f,  0.084264f,  0.008784f,
  0.159247f,  0.098141f,  -0.079164f, 0.000787f,  0.010893f,  0.074099f,
  -0.050997f, -0.115440f, -0.057551f, -0.046813f, -0.105561f, 0.062046f,
  -0.126786f, -0.046743f, 0.127363f,  -0.125897f, 0.099600f,  -0.158921f,
  -0.066052f, -0.058125f, 0.060994f,  -0.057278f, 0.038039f,  0.031433f,
  0.051530f,  -0.105225f, -0.170497f, -0.096904f, 0.165860f,  0.048557f,
  -0.228870f, 0.070217f,  -0.026037f, -0.190571f, -0.019728f, -0.058938f,
  0.131191f,  0.060044f,  0.110688f,  0.165069f,  0.128313f,  0.137310f,
  -0.070768f, -0.028497f, 0.172275f,  -0.034650f, -0.144993f, 0.044999f,
  -0.128149f, -0.181217f, 0.057810f,  0.076005f,  0.125451f,  0.031158f,
  -0.098750f, -0.081462f, 0.003135f,  0.040904f,  -0.129133f, -0.073975f,
  -0.014363f, -0.072583f, -0.000000f, -0.107604f, -0.089508f, -0.043322f,
  0.161525f,  -0.072672f, 0.115559f,  0.042244f,  -0.009814f, -0.137073f,
  -0.044343f, -0.073763f, -0.066485f, -0.140217f, 0.071814f,  0.045242f,
  -0.058185f, -0.037742f, -0.154157f, 0.052853f,  0.096638f,  0.186441f,
  0.062320f,  0.068830f,  0.073185f,  0.039552f,  -0.088552f, 0.177376f,
  -0.016728f, 0.029711f,  0.035349f,  -0.032692f, 0.237199f,  -0.015490f,
  0.145833f,  0.072769f,  -0.055855f, 0.059040f,  -0.123917f, -0.032616f,
  -0.007351f, -0.053237f, 0.025371f,  -0.015673f, 0.141625f,  -0.023250f,
  0.018697f,  -0.062777f, -0.111130f, 0.133409f,  -0.109065f, 0.067532f,
  -0.031783f, -0.052835f, -0.149102f, 0.001095f,  -0.076109f, -0.134771f,
  0.043852f,  -0.116434f, -0.033548f, -0.079942f, -0.064924f, -0.025276f,
  -0.113454f, 0.185967f,  -0.059443f, -0.104968f, 0.026388f,  0.044282f,
  -0.204505f, 0.113483f,  0.031135f,  0.015687f,  0.103474f,  -0.146963f,
  0.082210f,  -0.057633f, 0.091588f,  0.157075f,  0.014673f,  0.038945f,
  0.024381f,  -0.105625f, 0.063879f,  0.071338f,  -0.033554f, 0.096861f,
  0.059970f,  -0.111544f, 0.111861f,  0.096360f,  0.003029f,  -0.001189f,
  -0.034639f, -0.093117f, -0.072083f, -0.080473f, 0.192068f,  0.002340f,
  0.085147f,  0.091464f,  -0.040522f, -0.090964f, 0.058668f,  -0.124351f,
  0.124569f,  0.092146f,  -0.115690f, -0.184624f, -0.019868f, 0.039384f,
  0.011854f,  -0.036709f, 0.008656f,  0.050505f,  0.022078f,  -0.033573f,
  -0.005270f, 0.104863f,  -0.057247f, -0.089573f, -0.127320f, 0.087258f,
  0.140772f,  -0.199792f, -0.021266f, 0.080187f,  0.151802f,  0.093116f,
  0.066691f,  -0.151823f, 0.063698f,  0.078199f,  -0.123904f, 0.084057f,
  -0.020876f, -0.042427f, 0.011557f,  0.108083f,  0.092926f,  -0.085145f,
};

static float model_32_bias_1[] = {
  0.000042f,  -0.006140f, -0.002002f, 0.004076f,  0.001405f,  -0.009210f,
  -0.001267f, -0.007293f, 0.007237f,  0.001447f,  -0.000077f, 0.000090f,
  0.013788f,  0.002428f,  -0.002772f, 0.001612f,  0.003879f,  -0.004712f,
  -0.008383f, 0.019519f,  -0.019254f, -0.009412f, 0.000890f,  0.005434f,
  -0.002977f, -0.002094f, -0.001815f, 0.001531f,  0.002763f,  -0.002531f,
  0.007614f,  -0.001500f, 0.003591f,  0.008844f,  -0.002515f, 0.001942f,
  0.000454f,  0.000602f,  0.004907f,  -0.011145f, -0.000712f, -0.002919f,
  0.005674f,  0.000670f,  0.012670f,  -0.000671f, 0.008601f,  -0.008168f,
  0.003901f,  -0.000200f, -0.000000f, -0.003352f, 0.002361f,  -0.000216f,
  0.006218f,  0.005279f,  -0.075796f, 0.001938f,  -0.002567f, -0.007141f,
  0.002179f,  0.001196f,  0.006892f,  0.008091f,  0.003845f,  0.033050f,
  0.006308f,  0.007283f,  0.003687f,  -0.007838f, 0.003285f,  -0.002985f,
  0.011499f,  -0.001510f, 0.002218f,  0.002030f,  -0.002106f, 0.005501f,
  -0.016135f, -0.005617f, 0.006153f,  0.010305f,  -0.004011f, -0.000685f,
  0.011687f,  -0.006823f, -0.011131f, -0.000154f, 0.002434f,  -0.002785f,
  0.007090f,  -0.006760f, 0.011992f,  -0.006562f, 0.013981f,  0.008723f,
  0.002638f,  -0.002557f, 0.000763f,  -0.000172f, 0.010690f,  -0.005124f,
  0.000044f,  -0.000824f, 0.013013f,  0.008470f,  0.003222f,  0.002271f,
  0.002532f,  0.001166f,  0.001409f,  -0.002648f, 0.003063f,  0.009382f,
  0.004746f,  0.029146f,  -0.001678f, -0.006849f, -0.002065f, -0.004442f,
  -0.003095f, 0.005478f,  -0.016205f, -0.003504f, -0.000173f, -0.004172f,
  0.003228f,  0.001268f,  -0.005367f, 0.001394f,  -0.000380f, -0.000091f,
  0.000186f,  0.012455f,  -0.021520f, -0.006131f, -0.003484f, 0.001223f,
  -0.010080f, 0.001644f,  -0.002760f, -0.014643f, -0.004733f, 0.000363f,
  0.008470f,  -0.005217f, -0.001400f, 0.005468f,  -0.005686f, -0.000317f,
  0.000247f,  0.001779f,  0.011312f,  -0.000322f, 0.007581f,  0.006181f,
  -0.008154f, 0.003431f,  0.003828f,  0.000291f,  0.001080f,  0.003150f,
  -0.005266f, 0.006979f,  0.005523f,  -0.002483f, -0.006152f, 0.008781f,
  0.006275f,  0.000431f,  -0.002173f, -0.010758f, -0.011069f, 0.005591f,
  -0.006493f, -0.001780f, 0.008200f,  -0.006500f, -0.003939f, 0.003951f,
  0.005682f,  0.003712f,  -0.004669f, 0.001017f,  0.001213f,  -0.000934f,
  0.002502f,  -0.005038f, -0.006612f, 0.001782f,  -0.016128f, -0.000586f,
};

static float model_32_weight_2[] = {
  0.023315f,  0.009942f,  0.148441f,  0.180550f,  -0.063245f, -0.027284f,
  -0.006656f, -0.113190f, 0.291388f,  -0.020714f, -0.045074f, -0.211432f,
  0.021604f,  -0.181184f, -0.010682f, -0.052014f, -0.039266f, 0.025819f,
  0.097572f,  -0.036498f, -0.043125f, 0.096864f,  -0.026711f, 0.047024f,
  -0.006366f, 0.091637f,  -0.044621f, -0.036159f, 0.081710f,  0.080998f,
  -0.039204f, 0.129496f,  -0.029907f, 0.142648f,  -0.048458f, -0.103097f,
  0.154936f,  0.058592f,  0.022156f,  0.047233f,  0.044223f,  -0.129137f,
  0.107059f,  0.004486f,  0.067055f,  -0.055159f, -0.062779f, -0.015389f,
  0.009590f,  0.041570f,  -0.008060f, -0.067173f, 0.081788f,  0.100880f,
  -0.070958f, -0.027428f, -0.069884f, -0.118779f, -0.040923f, 0.096974f,
  -0.050828f, -0.099917f, -0.032518f, 0.021947f,  -0.101232f, -0.024109f,
  0.074509f,  -0.128402f, -0.009242f, 0.137428f,  -0.154905f, 0.038972f,
  0.065552f,  0.073545f,  -0.111888f, -0.064888f, 0.031642f,  -0.003388f,
  -0.052979f, 0.162183f,  -0.079744f, -0.053543f, 0.025888f,  0.226277f,
  0.115140f,  0.109344f,  0.064991f,  -0.049096f, 0.010467f,  0.216934f,
  0.007954f,  -0.012763f, -0.141777f, 0.004792f,  -0.085271f, 0.088904f,
  -0.051859f, 0.260176f,  0.068297f,  -0.138231f, 0.059655f,  -0.027361f,
  0.011149f,  0.138596f,  0.122890f,  -0.105170f, 0.031191f,  -0.117018f,
  0.088821f,  0.094296f,  0.047935f,  0.003999f,  -0.055358f, -0.039549f,
  0.048829f,  0.144208f,  0.099124f,  -0.070595f, 0.071418f,  0.137281f,
  -0.033201f, -0.013812f, -0.151431f, -0.052237f, -0.202358f, -0.115496f,
  0.070812f,  -0.084416f, -0.143183f, 0.141228f,  -0.148385f, -0.046348f,
  -0.074922f, -0.007579f, 0.009116f,  0.129360f,  0.021441f,  -0.135597f,
  0.088783f,  0.136703f,  -0.120966f, -0.060064f, 0.046739f,  -0.044980f,
  -0.102123f, 0.101066f,  0.020049f,  -0.053689f, 0.238632f,  0.012393f,
  0.038760f,  0.043475f,  0.019541f,  0.020600f,  0.094327f,  -0.047644f,
  0.083988f,  0.062354f,  0.010155f,  -0.076439f, -0.163363f, 0.040473f,
  0.048929f,  -0.130918f, 0.096162f,  -0.030143f, 0.037130f,  0.029354f,
  -0.029826f, 0.035862f,  -0.028652f, -0.081258f, 0.148325f,  -0.031462f,
  -0.047901f, -0.144506f, 0.007763f,  0.089245f,  0.119902f,  -0.029330f,
  0.208406f,  -0.095402f, 0.105937f,  -0.065616f, 0.211439f,  0.151395f,
  -0.010235f, -0.227074f, -0.097284f, 0.009543f,  0.124188f,  0.065886f,
  -0.025132f, 0.062634f,  0.072015f,  0.035937f,  0.045029f,  -0.028348f,
  0.120746f,  -0.019308f, -0.146276f, -0.006653f, -0.083653f, -0.127524f,
  -0.150797f, -0.016513f, 0.110605f,  -0.133114f, 0.138937f,  0.001866f,
  -0.047133f, -0.132513f, -0.135868f, -0.083312f, 0.115264f,  0.052047f,
  0.018296f,  0.153647f,  0.091984f,  0.134889f,  0.006012f,  -0.031391f,
  -0.032677f, 0.022800f,  -0.153953f, 0.133374f,  0.052597f,  -0.094870f,
  -0.056411f, -0.025393f, -0.064615f, 0.001426f,  -0.122524f, 0.006327f,
  -0.145332f, 0.155146f,  0.058256f,  0.065783f,  0.083045f,  -0.102042f,
  0.003880f,  -0.075041f, 0.117346f,  0.038443f,  -0.152762f, 0.039902f,
  -0.068320f, 0.172879f,  -0.151293f, -0.046736f, 0.006297f,  0.088587f,
  0.179033f,  0.096428f,  -0.081379f, -0.094508f, -0.080785f, 0.163242f,
  -0.063129f, 0.196462f,  -0.152364f, -0.056323f, -0.006324f, -0.021335f,
  0.078257f,  -0.086104f, -0.070169f, -0.144409f, -0.016406f, -0.016437f,
  -0.085073f, 0.159668f,  -0.043110f, -0.058444f, -0.067347f, 0.015140f,
  -0.010129f, 0.100588f,  -0.073353f, -0.038282f, -0.095692f, -0.022738f,
  -0.020631f, 0.137513f,  -0.113749f, -0.089420f, 0.064879f,  0.060281f,
  0.091348f,  -0.125472f, 0.177429f,  -0.153159f, 0.115579f,  -0.074449f,
  -0.046125f, -0.103379f, 0.029197f,  -0.076270f, -0.069498f, -0.064762f,
  -0.012381f, 0.010706f,  -0.075600f, -0.121852f, -0.003593f, -0.082177f,
  -0.110185f, -0.134928f, 0.066805f,  0.136377f,  -0.053391f, -0.098571f,
  -0.029102f, -0.065681f, -0.131221f, 0.060346f,  -0.015493f, 0.039058f,
  0.104167f,  0.053130f,  0.067786f,  -0.116491f, -0.057692f, -0.080242f,
  0.174818f,  -0.114371f, -0.064734f, -0.138239f, 0.033370f,  -0.098404f,
  0.109917f,  -0.039371f, 0.081018f,  -0.197464f, -0.159591f, -0.037565f,
  -0.020169f, -0.027930f, 0.219624f,  0.085387f,  0.038434f,  0.102895f,
  -0.052565f, -0.094644f, -0.046368f, -0.136135f, -0.109540f, -0.120350f,
  -0.088268f, -0.042547f, -0.089997f, 0.189874f,  0.021886f,  -0.133024f,
  0.084386f,  0.063040f,  -0.211328f, 0.055801f,  0.117186f,  -0.093221f,
  -0.025895f, 0.010187f,  0.140352f,  -0.201807f, 0.029124f,  0.171384f,
  0.000259f,  0.107008f,  0.137121f,  -0.005327f, 0.041833f,  -0.018803f,
  -0.121898f, 0.026590f,  -0.166381f, -0.011018f, -0.129255f, -0.035660f,
  -0.022045f, -0.125059f, -0.110528f, -0.089174f, 0.101365f,  -0.106036f,
  -0.151966f, -0.012588f, 0.105939f,  -0.091037f, -0.003351f, -0.039600f,
  -0.037762f, 0.154893f,  0.108042f,  -0.016837f, -0.032621f, 0.018397f,
  -0.061876f, -0.062740f, -0.128081f, -0.140084f, -0.088681f, -0.034859f,
  -0.084282f, -0.016347f, -0.049346f, 0.009241f,  -0.006890f, 0.034584f,
  0.087202f,  0.102043f,  0.173502f,  0.179440f,  -0.097435f, -0.046507f,
  0.108696f,  0.072237f,  -0.103860f, -0.008157f, 0.117433f,  -0.102510f,
  -0.102336f, -0.004831f, -0.111979f, 0.137682f,  -0.143046f, -0.202486f,
  0.050821f,  -0.176744f, 0.083725f,  0.008190f,  -0.022411f, -0.058588f,
  0.064806f,  0.027842f,  -0.048884f, 0.024822f,  0.083079f,  -0.060988f,
  0.024157f,  0.015431f,  -0.156727f, -0.075372f, 0.117695f,  -0.008212f,
  0.064134f,  0.021907f,  -0.006295f, -0.247473f, 0.018495f,  -0.016189f,
  -0.109745f, -0.050781f, 0.112176f,  -0.030995f, -0.037800f, -0.064704f,
  0.012014f,  -0.065745f, 0.155872f,  0.033345f,  0.056912f,  0.070697f,
  0.005726f,  -0.061855f, -0.134219f, -0.193435f, -0.177184f, 0.099589f,
  -0.021369f, 0.055211f,  -0.057384f, 0.018764f,  0.109348f,  0.077451f,
  -0.057340f, -0.141309f, 0.109425f,  -0.064728f, -0.142926f, 0.087746f,
  0.061822f,  0.119265f,  0.034325f,  0.001762f,  0.020134f,  0.050603f,
  0.123120f,  0.061343f,  0.060507f,  0.027177f,  0.008330f,  -0.138110f,
  0.074305f,  0.002259f,  -0.059942f, -0.071155f, 0.076314f,  -0.071215f,
  -0.166902f, -0.036544f, -0.023499f, 0.051969f,  0.378075f,  0.101774f,
  0.011737f,  0.165913f,  -0.068507f, 0.024869f,  -0.025287f, 0.049667f,
  0.067983f,  -0.246831f, 0.196860f,  -0.063032f, 0.056679f,  0.137169f,
  -0.038682f, -0.005123f, 0.051202f,  0.056523f,  -0.013523f, 0.022579f,
  -0.046830f, -0.051354f, 0.078082f,  -0.129876f, 0.098098f,  0.287470f,
  0.127787f,  -0.151142f, 0.024986f,  -0.290206f, 0.024786f,  -0.297369f,
  -0.130702f, 0.012860f,  -0.090386f, 0.317776f,  0.012335f,  0.089712f,
  0.004899f,  0.075794f,  0.040487f,  -0.085524f, 0.254310f,  0.021019f,
  -0.156634f, -0.089973f, 0.102801f,  0.131151f,  0.003507f,  -0.140485f,
  0.047666f,  0.058002f,  -0.115588f, 0.238270f,  -0.138960f, 0.028066f,
  0.014767f,  0.257688f,  -0.047960f, -0.026848f, 0.006793f,  0.006516f,
  -0.010265f, 0.072372f,  0.097480f,  0.099231f,  -0.146552f, -0.111149f,
  -0.202976f, 0.012999f,  -0.004669f, -0.129416f, 0.093871f,  0.082203f,
  0.134277f,  0.086394f,  0.102560f,  -0.100626f, 0.078620f,  -0.104595f,
  0.103277f,  0.148098f,  -0.157190f, -0.046407f, 0.094458f,  0.133433f,
  0.142963f,  0.104086f,  0.012945f,  -0.143172f, -0.123266f, 0.008033f,
  -0.084271f, 0.041951f,  0.089956f,  -0.055801f, 0.053987f,  0.023422f,
  -0.054861f, -0.109895f, 0.014957f,  -0.045532f, -0.111039f, 0.048968f,
  0.036744f,  0.047873f,  0.122865f,  0.130606f,  -0.075613f, -0.153454f,
  -0.043671f, 0.159849f,  0.060348f,  0.169033f,  -0.055977f, 0.084022f,
  -0.087247f, -0.038360f, 0.133249f,  0.056518f,  -0.123814f, -0.058689f,
  -0.034922f, 0.039147f,  0.157526f,  0.080834f,  -0.038149f, 0.113096f,
  -0.087245f, 0.070590f,  -0.109496f, 0.113047f,  0.132542f,  0.035526f,
  0.126592f,  -0.030761f, -0.069424f, 0.024559f,  0.003982f,  0.112796f,
  -0.005292f, -0.038256f, -0.049596f, -0.090698f, 0.014342f,  0.079322f,
  0.052467f,  0.130543f,  0.140753f,  0.092183f,  -0.096905f, 0.062173f,
  -0.066964f, 0.034362f,  0.054922f,  0.103263f,  0.143663f,  0.003628f,
  -0.024963f, -0.058637f, 0.076272f,  0.000239f,  0.094221f,  0.100840f,
  -0.040756f, -0.100302f, 0.000112f,  0.019603f,  -0.041916f, 0.124743f,
  -0.032095f, 0.075124f,  0.013469f,  -0.043641f, -0.078822f, 0.159094f,
  -0.107542f, 0.093319f,  -0.067611f, -0.024023f, 0.111107f,  0.084686f,
  -0.079358f, 0.147192f,  -0.137032f, 0.133479f,  0.095471f,  0.077931f,
  -0.052814f, 0.081937f,  -0.059427f, 0.047067f,  -0.105411f, 0.071057f,
  -0.047661f, 0.072313f,  0.039899f,  0.075110f,  -0.059234f, -0.138594f,
  -0.035850f, -0.024802f, 0.090718f,  -0.052524f, -0.074535f, 0.133718f,
  0.087716f,  -0.155302f, 0.046772f,  -0.112736f, 0.115546f,  -0.047093f,
  -0.006068f, 0.035628f,  -0.141675f, 0.046611f,  -0.056710f, -0.104525f,
  0.122145f,  -0.038171f, 0.019748f,  0.151466f,  -0.077142f, -0.105032f,
  0.106254f,  -0.002889f, 0.077653f,  -0.021613f, -0.105025f, -0.073472f,
  -0.144118f, 0.027321f,  0.107127f,  0.156267f,  -0.087432f, -0.168620f,
  0.024905f,  -0.118464f, 0.067629f,  -0.036027f, -0.052949f, -0.009122f,
  0.080799f,  -0.135019f, 0.014629f,  -0.051913f, -0.123423f, -0.007450f,
  0.103012f,  0.347953f,  -0.086945f, -0.405192f, 0.175630f,  -0.185458f,
  -0.075681f, 0.166465f,  0.386271f,  -0.120377f, 0.159355f,  -0.361235f,
  0.259729f,  0.215491f,  0.063474f,  0.126298f,  -0.056683f, -0.306507f,
  -0.223700f, -0.311741f, -0.065251f, 0.290595f,  0.436650f,  -0.037714f,
  -0.450497f, -0.046007f, -0.095011f, 0.091761f,  0.075395f,  -0.009952f,
  0.123609f,  -0.003958f, 0.040423f,  -0.034435f, -0.177235f, -0.169742f,
  0.034383f,  -0.025981f, -0.037194f, -0.054887f, -0.135285f, -0.057625f,
  -0.132758f, -0.189846f, 0.095394f,  -0.041510f, -0.017332f, -0.103523f,
  -0.049889f, -0.003141f, 0.158381f,  -0.016324f, 0.050603f,  -0.133085f,
  0.024282f,  -0.065770f, -0.018076f, 0.072098f,  0.144179f,  -0.013896f,
  0.091027f,  0.172862f,  -0.008918f, -0.097354f, 0.119092f,  0.024670f,
  -0.119507f, -0.094648f, 0.039484f,  -0.127704f, 0.024994f,  -0.124560f,
  0.130205f,  0.045896f,  0.084101f,  -0.096747f, 0.052757f,  -0.085354f,
  0.158367f,  -0.069199f, 0.006078f,  0.047620f,  -0.052518f, -0.152691f,
  0.087656f,  -0.051631f, 0.129471f,  0.065971f,  0.025372f,  0.186931f,
  -0.047502f, 0.110437f,  -0.135485f, -0.140037f, 0.106076f,  -0.000428f,
  0.040376f,  -0.076384f, 0.143814f,  0.005190f,  -0.126681f, 0.046718f,
  0.120542f,  -0.091929f, 0.049842f,  -0.144518f, 0.136116f,  0.071994f,
  0.023153f,  0.079770f,  -0.050645f, 0.007405f,  0.008804f,  -0.025856f,
  -0.125218f, 0.018591f,  0.147864f,  0.161758f,  0.055266f,  0.026370f,
  0.062114f,  0.119809f,  0.065186f,  0.142643f,  -0.143105f, 0.148697f,
  -0.159067f, -0.040422f, -0.076578f, -0.133487f, 0.030926f,  -0.084044f,
  0.115878f,  -0.083693f, -0.141332f, 0.063728f,  0.069554f,  0.012824f,
  -0.052451f, 0.083686f,  -0.056946f, 0.082072f,  -0.106960f, 0.008249f,
  -0.127443f, -0.077236f, 0.141636f,  -0.086060f, -0.083247f, -0.080457f,
  -0.091367f, -0.141382f, 0.102086f,  -0.070925f, -0.071407f, -0.115405f,
  -0.062424f, -0.018247f, 0.122884f,  -0.050857f, 0.025773f,  0.001569f,
  0.127260f,  -0.105733f, -0.094882f, -0.036844f, -0.081019f, 0.054965f,
  -0.019196f, -0.166315f, -0.041503f, -0.055681f, 0.071458f,  0.024172f,
  -0.139080f, -0.027993f, -0.014360f, 0.148718f,  0.177293f,  -0.053784f,
  -0.016796f, 0.109381f,  -0.062822f, -0.104031f, 0.067733f,  0.086345f,
  0.099194f,  0.003867f,  0.030405f,  0.099572f,  0.074947f,  0.043413f,
  0.078892f,  -0.117099f, 0.067018f,  -0.065421f, 0.000993f,  0.158141f,
  -0.178770f, -0.086801f, 0.152137f,  0.115067f,  -0.131815f, -0.097685f,
  0.090809f,  -0.065836f, 0.072216f,  0.128986f,  0.091749f,  0.044773f,
  0.078706f,  0.047894f,  0.031404f,  -0.018776f, -0.148230f, -0.122312f,
  -0.161980f, 0.064412f,  -0.155308f, 0.054225f,  -0.101904f, 0.086862f,
  -0.090917f, -0.150981f, 0.059673f,  0.086336f,  -0.112123f, -0.174863f,
  -0.163726f, 0.018038f,  0.115486f,  0.055300f,  0.050581f,  0.059922f,
  -0.038345f, -0.026306f, 0.072337f,  -0.015701f, 0.062881f,  -0.017612f,
  0.111332f,  0.019855f,  0.176641f,  0.082359f,  -0.092642f, 0.019520f,
  -0.031413f, 0.000855f,  -0.075165f, 0.090524f,  0.095017f,  0.141287f,
  0.040580f,  0.144361f,  -0.131046f, 0.024432f,  0.008646f,  -0.033461f,
  -0.099958f, -0.095275f, 0.009056f,  0.135447f,  0.034255f,  -0.012622f,
  0.108332f,  -0.125815f, -0.069754f, 0.051453f,  0.097627f,  -0.043847f,
  0.079649f,  -0.015993f, 0.021116f,  0.148090f,  0.052813f,  0.034782f,
  0.114678f,  -0.019955f, 0.061118f,  0.029631f,  0.030477f,  -0.017481f,
  -0.054022f, -0.160599f, 0.079391f,  -0.074867f, -0.139941f, -0.091356f,
  0.169986f,  -0.033396f, -0.082934f, -0.044277f, -0.058846f, 0.138309f,
  0.040388f,  -0.158449f, 0.062309f,  -0.077286f, -0.066277f, 0.053036f,
  0.110742f,  0.068445f,  0.032029f,  -0.098522f, -0.064413f, 0.021580f,
  -0.102096f, -0.090319f, 0.107280f,  0.002418f,  -0.004109f, -0.153419f,
  -0.130030f, -0.114509f, 0.121710f,  -0.049995f, 0.156908f,  0.009359f,
  -0.086844f, -0.088545f, 0.090437f,  -0.003565f, 0.130355f,  0.085197f,
  -0.089237f, 0.024024f,  -0.044954f, -0.142076f, 0.111580f,  -0.082652f,
  -0.046274f, 0.057762f,  -0.076236f, 0.041777f,  -0.133809f, 0.031015f,
  -0.119538f, 0.037610f,  0.006070f,  0.133018f,  0.001743f,  -0.119398f,
  0.011361f,  -0.082938f, -0.037331f, 0.018662f,  0.002872f,  0.100216f,
  -0.102370f, 0.084711f,  -0.092872f, 0.088041f,  -0.227768f, 0.106044f,
  0.179485f,  -0.154744f, 0.124601f,  -0.009954f, 0.074412f,  0.014279f,
  -0.064924f, 0.043867f,  0.122151f,  -0.151346f, -0.105331f, 0.054893f,
  0.087751f,  0.085283f,  0.012009f,  -0.229500f, 0.105201f,  0.075039f,
  0.174600f,  -0.165838f, -0.079170f, -0.065286f, -0.117601f, 0.008546f,
  0.026444f,  0.077356f,  0.006269f,  -0.066521f, 0.080707f,  0.078284f,
  -0.051490f, 0.098317f,  0.100705f,  0.052801f,  -0.066420f, 0.071602f,
  -0.121642f, -0.075764f, -0.119422f, 0.171148f,  0.105074f,  0.153728f,
  0.118892f,  0.128955f,  0.154633f,  0.117715f,  0.070809f,  0.023339f,
  0.093507f,  -0.158717f, -0.078459f, -0.098907f, -0.144474f, 0.122724f,
  0.149107f,  0.064940f,  -0.057294f, 0.147990f,  0.095911f,  0.000541f,
  -0.084145f, 0.023597f,  -0.100779f, 0.104103f,  -0.096736f, 0.102222f,
  -0.146470f, 0.087397f,  0.055483f,  -0.149559f, -0.121087f, 0.009602f,
  0.003427f,  -0.107699f, -0.204417f, -0.047670f, 0.038271f,  0.063305f,
  0.200732f,  -0.110966f, 0.018218f,  0.086144f,  -0.000646f, -0.004790f,
  0.041485f,  0.078288f,  0.157536f,  0.111532f,  -0.007125f, 0.025975f,
  -0.053035f, 0.011267f,  -0.050559f, -0.021138f, -0.119812f, 0.002919f,
  0.031653f,  0.047350f,  -0.071993f, -0.204535f, 0.076177f,  0.024452f,
  0.036906f,  -0.042306f, -0.065526f, 0.095168f,  0.021185f,  -0.273182f,
  0.095874f,  -0.041627f, 0.021026f,  0.039961f,  0.161380f,  0.079885f,
  0.158936f,  0.007990f,  0.035698f,  -0.011831f, 0.044664f,  -0.077042f,
  -0.048374f, -0.110136f, -0.174635f, 0.088208f,  0.102261f,  -0.086236f,
  0.020322f,  -0.077807f, 0.215097f,  0.116602f,  -0.169047f, -0.181790f,
  -0.138423f, -0.078049f, -0.030667f, 0.016293f,  -0.038055f, -0.094729f,
  -0.040892f, -0.034271f, -0.026217f, -0.102106f, 0.227456f,  0.015971f,
  0.027906f,  -0.121823f, 0.000000f,  0.000000f,  0.000000f,  0.000000f,
  0.000000f,  0.000000f,  -0.000000f, -0.000000f, 0.000000f,  0.000000f,
  0.000000f,  0.000000f,  -0.000000f, -0.000000f, 0.000000f,  -0.000000f,
  0.000000f,  -0.000000f, 0.000000f,  -0.000000f, 0.000000f,  0.000000f,
  0.000000f,  0.000000f,  -0.000000f, 0.052534f,  -0.181702f, -0.237750f,
  -0.184787f, 0.058473f,  0.030697f,  0.054997f,  0.054618f,  -0.225799f,
  -0.013338f, -0.161964f, 0.103130f,  0.218145f,  0.072875f,  -0.061053f,
  0.073931f,  0.021168f,  0.044962f,  0.080996f,  0.038281f,  -0.161894f,
  -0.044411f, -0.270253f, 0.403627f,  -0.058775f, -0.182004f, 0.043783f,
  0.043383f,  -0.097300f, -0.102584f, 0.036716f,  0.132210f,  -0.082811f,
  -0.002533f, -0.047658f, 0.070750f,  0.138616f,  -0.170502f, 0.033454f,
  -0.153071f, -0.097268f, 0.083981f,  -0.159857f, 0.016019f,  0.097635f,
  0.151661f,  -0.044400f, 0.043338f,  0.122946f,  -0.211961f, -0.013373f,
  -0.021820f, 0.034193f,  -0.005576f, -0.025407f, 0.141396f,  -0.163763f,
  -0.075671f, -0.123407f, 0.083998f,  0.168569f,  0.028587f,  0.051634f,
  0.078057f,  -0.113800f, 0.039054f,  -0.005724f, 0.104934f,  0.143679f,
  -0.028559f, 0.103980f,  -0.131291f, 0.152988f,  0.051345f,  -0.021130f,
  -0.105509f, 0.125495f,  0.158126f,  0.133967f,  0.020446f,  0.075865f,
  0.123730f,  0.080473f,  -0.074815f, -0.065078f, 0.001651f,  0.121510f,
  0.002753f,  0.044792f,  -0.094633f, -0.012736f, 0.148927f,  0.074386f,
  0.155707f,  0.034441f,  0.047543f,  0.014275f,  -0.079970f, 0.088667f,
  -0.043095f, 0.172709f,  -0.121125f, 0.067469f,  -0.088891f, -0.136448f,
  -0.045057f, -0.040769f, -0.145175f, -0.154854f, 0.033357f,  0.022429f,
  -0.071789f, 0.017239f,  0.037157f,  0.132964f,  -0.162069f, 0.091442f,
  -0.151372f, 0.144172f,  0.084167f,  -0.067680f, -0.022187f, -0.148872f,
  0.113231f,  0.039534f,  0.017354f,  -0.221757f, 0.252301f,  -0.120554f,
  0.041586f,  -0.010410f, -0.042411f, 0.063398f,  -0.251122f, 0.035642f,
  -0.095665f, -0.121515f, -0.327746f, -0.194521f, 0.025983f,  0.246139f,
  -0.215331f, -0.071443f, 0.070730f,  0.208783f,  0.026753f,  0.135690f,
  -0.005715f, -0.026605f, 0.070763f,  -0.141849f, 0.059330f,  0.034425f,
  -0.049144f, 0.020327f,  -0.079490f, 0.139786f,  0.003989f,  0.034377f,
